{"learner":{"attributes":{"best_iteration":"30","best_ntree_limit":"31","best_score":"0.47363195596609936","scikit_learn":"{\"use_label_encoder\": null, \"n_estimators\": 500, \"objective\": \"binary:logistic\", \"max_depth\": 5, \"max_leaves\": null, \"max_bin\": null, \"grow_policy\": null, \"learning_rate\": 0.2, \"verbosity\": null, \"booster\": \"gbtree\", \"tree_method\": null, \"gamma\": null, \"min_child_weight\": 2, \"max_delta_step\": null, \"subsample\": null, \"sampling_method\": null, \"colsample_bytree\": null, \"colsample_bylevel\": null, \"colsample_bynode\": null, \"reg_alpha\": null, \"reg_lambda\": null, \"scale_pos_weight\": null, \"base_score\": null, \"missing\": NaN, \"num_parallel_tree\": null, \"random_state\": null, \"n_jobs\": null, \"monotone_constraints\": null, \"interaction_constraints\": null, \"importance_type\": null, \"gpu_id\": null, \"validate_parameters\": null, \"predictor\": null, \"enable_categorical\": false, \"feature_types\": null, \"max_cat_to_onehot\": null, \"max_cat_threshold\": null, \"eval_metric\": null, \"early_stopping_rounds\": 50, \"callbacks\": null, \"classes_\": [0, 1], \"n_classes_\": 2, \"evals_result_\": {\"validation_0\": {\"logloss\": [0.6308198742646973, 0.5899674847868888, 0.5591878563347942, 0.537401696294293, 0.520913425654507, 0.5087188321754027, 0.4988463447206773, 0.4911128407343589, 0.4844527355225322, 0.47927795265742074, 0.4753607358572093, 0.470808673863316, 0.46786478936300063, 0.46528310502328374, 0.4628568002976277, 0.45947042589825543, 0.45525606853790607, 0.45177366485552767, 0.44845351774999925, 0.44670200327394205, 0.4443385037555569, 0.4437029209632567, 0.4404181075988719, 0.43823842456718737, 0.4379215338300614, 0.4374700933579334, 0.4348368509299167, 0.433237289946882, 0.4319368830631698, 0.43031862204798854, 0.4274619080943052, 0.42622934948514374, 0.42485446862055537, 0.4239576471438793, 0.42240266031281837, 0.4209128885217121, 0.4201396045825978, 0.41981848107772396, 0.41904340968367615, 0.41801164856342254, 0.41709119734910327, 0.41554734882939137, 0.41521753998953664, 0.414979353334756, 0.4139833629215652, 0.41305778388715925, 0.41188778655549413, 0.410534805619967, 0.40804585514557234, 0.4072956896337674, 0.40607831640259373, 0.4059178396174795, 0.4049588257269355, 0.40426798051304963, 0.4038793822485261, 0.40256726210156846, 0.4004943059745722, 0.3992155924799159, 0.39882034085182433, 0.3982908401802509, 0.39637383517418073, 0.3950125340964408, 0.3946781239646458, 0.39343594394187054, 0.39297094734154914, 0.3918818265486526, 0.39078517420171666, 0.389588695498515, 0.3881166214485312, 0.3855721235894805, 0.38380807457002675, 0.3819274857840502, 0.3798420895687695, 0.379148156812006, 0.3778053471109948, 0.3767451653140716, 0.37635921702437475, 0.37621634662121434, 0.375949617155851, 0.375348377473715, 0.37459950913539686]}, \"validation_1\": {\"logloss\": [0.6330882723042173, 0.5929968950060225, 0.5625643675096634, 0.5427353744654312, 0.5265763929611534, 0.5149512129180683, 0.5060366991372641, 0.4993039557826982, 0.493921019178265, 0.4906082182153646, 0.4879214731026603, 0.4852524621886313, 0.48448628332527927, 0.4823457754758452, 0.480978638536395, 0.4796847870808263, 0.47874273820340774, 0.4786216850162829, 0.4784885649358843, 0.47757023117304864, 0.47652131619565574, 0.4768473695266422, 0.47474011105118197, 0.4750927432745246, 0.47550126067292564, 0.4759293192411159, 0.47668286943313365, 0.4761936442334202, 0.4756990408024128, 0.474725605962055, 0.47363195596609936, 0.4743694456904967, 0.47391167127185346, 0.47422360950596426, 0.4743430103772836, 0.4745933461969779, 0.47516997841435715, 0.4755105399803615, 0.47556417888698066, 0.474876391443274, 0.4746491016851831, 0.4753758618113283, 0.47564030226547505, 0.4759076376176756, 0.47641821132572537, 0.47653565077889565, 0.47728968566338237, 0.47753489544632877, 0.4765907524036898, 0.4768424881574189, 0.4771120646454447, 0.47701521550691456, 0.4774011377253312, 0.4779113932312551, 0.477910256375168, 0.4783658223081909, 0.4795744924290544, 0.47931241754458703, 0.4794952260536377, 0.48020010843631517, 0.48039565522140254, 0.48078392920860524, 0.4807329978395038, 0.4803361141321919, 0.48019755428452354, 0.4803801398690344, 0.48085620601825463, 0.48172103392176663, 0.4818482840502772, 0.48203579678856023, 0.4819392868080217, 0.4813533151418142, 0.4816462666765269, 0.481574374648043, 0.48115624244211125, 0.48161270236596465, 0.4814069204460416, 0.4813574848886399, 0.481561687904204, 0.4817094770483569, 0.4821448084550432]}}, \"_estimator_type\": \"classifier\"}"},"feature_names":["CryoSleep","Age","VIP","Cabin_num","Cabin_side","Spendings","Cabin_deck_1","Cabin_deck_2","Cabin_deck_3","Cabin_deck_4","Cabin_deck_5","Cabin_deck_6","Cabin_deck_7","Cabin_deck_8","HomePlanet_Earth","HomePlanet_Europa","HomePlanet_Mars","HomePlanet_Unknown","Destination_55 Cancri e","Destination_PSO J318.5-22","Destination_TRAPPIST-1e","Destination_Unknown"],"feature_types":["int","int","int","int","int","float","int","int","int","int","int","int","int","int","int","int","int","int","int","int","int","int"],"gradient_booster":{"model":{"gbtree_model_param":{"num_parallel_tree":"1","num_trees":"81","size_leaf_vector":"0"},"tree_info":[0,0,0,0,0,0,0,0,0,0,0,0,0,0,0,0,0,0,0,0,0,0,0,0,0,0,0,0,0,0,0,0,0,0,0,0,0,0,0,0,0,0,0,0,0,0,0,0,0,0,0,0,0,0,0,0,0,0,0,0,0,0,0,0,0,0,0,0,0,0,0,0,0,0,0,0,0,0,0,0,0],"trees":[{"base_weights":[8.149406E-3,1.1452992E0,-8.047716E-1,1.671875E0,5.707028E-1,-5.9415203E-1,-1.0109763E0,1.8646482E0,2.857143E-1,1.4659686E-1,7.696139E-1,-6.897436E-1,3.8961038E-1,-1.0849881E0,-8.067227E-1,1.8846847E0,1.1764706E-1,1.409836E0,-3.846154E-1,3.2911393E-1,-1.47651E-1,1.2227979E0,3.4679335E-1,-8.9497715E-1,-4.244186E-1,9.047619E-1,-2.1621622E-1,-1.0951239E0,3.3333334E-1,-5.0340134E-1,-9.309309E-1,1.4380165E0,1.9315207E0,-0E0,1.6226416E0,1.3333334E0,-5.833333E-1,1.5706806E-1,9.6E-1,-3.7362638E-1,1.9354838E-1,1.445946E0,4.680851E-1,9.1764706E-1,-3.9215688E-2,-1.0144928E0,-1.1570248E-1,2.2222222E-1,-1.0194986E0,-0E0,1.027027E0,2.7272728E-1,-8.235294E-1,-8.73065E-1,-1.167382E0,-3.7593985E-1,-1.3333334E0,-8.2625484E-1,-1.2307693E0],"categories":[],"categories_nodes":[],"categories_segments":[],"categories_sizes":[],"default_left":[1,1,1,1,1,1,1,1,1,1,1,1,1,1,1,1,0,1,1,1,1,1,1,1,1,1,1,1,0,1,1,0,0,0,0,0,0,0,0,0,0,0,0,0,0,0,0,0,0,0,0,0,0,0,0,0,0,0,0],"id":0,"left_children":[1,3,5,7,9,11,13,15,17,19,21,23,25,27,29,31,-1,33,35,37,39,41,43,45,47,49,51,53,-1,55,57,-1,-1,-1,-1,-1,-1,-1,-1,-1,-1,-1,-1,-1,-1,-1,-1,-1,-1,-1,-1,-1,-1,-1,-1,-1,-1,-1,-1],"loss_changes":[1.3621198E3,1.8489862E2,3.6717163E1,8.497595E1,2.4794289E1,4.0470566E1,5.666687E0,9.60553E0,3.0871916E1,5.1774464E0,3.8042763E1,2.0857056E1,1.2211184E1,4.8898315E0,4.014694E0,3.027771E0,0E0,4.5753155E0,9.653847E0,6.2802896E0,2.9443886E0,1.5574997E1,2.3228315E1,2.0279282E1,6.641268E1,2.323038E0,5.718023E0,3.999054E0,0E0,3.386323E0,1.5959473E0,0E0,0E0,0E0,0E0,0E0,0E0,0E0,0E0,0E0,0E0,0E0,0E0,0E0,0E0,0E0,0E0,0E0,0E0,0E0,0E0,0E0,0E0,0E0,0E0,0E0,0E0,0E0,0E0],"parents":[2147483647,0,0,1,1,2,2,3,3,4,4,5,5,6,6,7,7,8,8,9,9,10,10,11,11,12,12,13,13,14,14,15,15,17,17,18,18,19,19,20,20,21,21,22,22,23,23,24,24,25,25,26,26,27,27,29,29,30,30],"right_children":[2,4,6,8,10,12,14,16,18,20,22,24,26,28,30,32,-1,34,36,38,40,42,44,46,48,50,52,54,-1,56,58,-1,-1,-1,-1,-1,-1,-1,-1,-1,-1,-1,-1,-1,-1,-1,-1,-1,-1,-1,-1,-1,-1,-1,-1,-1,-1,-1,-1],"split_conditions":[5E-1,5E-1,5E-1,5E-1,4.785E2,5E-1,2.3845E3,5E-1,5E-1,2.875E2,5E-1,6.035E2,6.199E3,1.8765E3,2.75E1,5E-1,2.3529412E-2,3.6E1,1.35E1,2.195E2,2.35E1,1.224E3,5E-1,5E-1,1.129E3,5.9E1,1.85E2,5E-1,6.666667E-2,5E-1,4.65E1,2.8760332E-1,3.8630414E-1,-0E0,3.245283E-1,2.6666668E-1,-1.1666667E-1,3.141361E-2,1.92E-1,-7.472528E-2,3.8709678E-2,2.891892E-1,9.361702E-2,1.8352942E-1,-7.843138E-3,-2.0289855E-1,-2.3140496E-2,4.4444446E-2,-2.0389973E-1,-0E0,2.054054E-1,5.454546E-2,-1.6470589E-1,-1.74613E-1,-2.334764E-1,-7.518797E-2,-2.6666668E-1,-1.6525097E-1,-2.4615386E-1],"split_indices":[5,12,4,10,3,8,5,14,16,3,4,3,5,3,1,0,0,3,1,3,1,3,20,7,3,3,3,20,0,12,1,0,0,0,0,0,0,0,0,0,0,0,0,0,0,0,0,0,0,0,0,0,0,0,0,0,0,0,0],"split_type":[0,0,0,0,0,0,0,0,0,0,0,0,0,0,0,0,0,0,0,0,0,0,0,0,0,0,0,0,0,0,0,0,0,0,0,0,0,0,0,0,0,0,0,0,0,0,0,0,0,0,0,0,0,0,0,0,0,0,0],"sum_hessian":[1.4715E3,6.1325E2,8.5825E2,3.19E2,2.9425E2,4.265E2,4.3175E2,2.7975E2,3.925E1,9.45E1,1.9975E2,3.89E2,3.75E1,3.1375E2,1.18E2,2.765E2,3.25E0,1.425E1,2.5E1,5.825E1,3.625E1,9.55E1,1.0425E2,2.18E2,1.71E2,2E1,1.75E1,3.1175E2,2E0,3.575E1,8.225E1,2.925E1,2.4725E2,2E0,1.225E1,2E0,2.3E1,4.675E1,1.15E1,2.175E1,1.45E1,7.3E1,2.25E1,4.15E1,6.275E1,1.8875E2,2.925E1,8.225E1,8.875E1,2.5E0,1.75E1,1E1,7.5E0,7.975E1,2.32E2,3.225E1,3.5E0,6.375E1,1.85E1],"tree_param":{"num_deleted":"0","num_feature":"22","num_nodes":"59","size_leaf_vector":"0"}},{"base_weights":[7.6092468E-3,9.401956E-1,-6.5186316E-1,1.3886187E0,4.6290386E-1,-4.7994363E-1,-8.207252E-1,1.5516142E0,2.4382728E-1,1.4260857E-1,6.493399E-1,-5.57408E-1,3.1640387E-1,-8.6930287E-1,-5.9382665E-1,1.5688537E0,9.966535E-2,1.1758527E0,-3.0323967E-1,6.1031973E-1,3.3016928E-2,1.0779322E0,2.693942E-1,-4.5132375E-1,-9.799874E-1,1.0532057E0,3.6204904E-3,-8.760865E-1,1.2639365E-1,1.3984968E-1,-6.558266E-1,1.1851974E0,1.6098478E0,1.4891447E0,2.9674372E-1,1.0187424E0,-4.8574787E-1,3.8777685E-1,1.192341E0,-1.0951211E0,8.798607E-2,1.3164433E0,3.7931168E-1,7.0931053E-1,-2.5344795E-2,-6.404188E-1,-1.8267213E-1,-3.757915E-1,-1.0986768E0,5.9664045E-2,1.2889425E0,2.0528723E-1,-9.6690995E-1,-9.1326416E-1,-6.394621E-1,-5.4064196E-1,7.0607847E-1,-8.1950897E-1,-4.0957212E-1],"categories":[],"categories_nodes":[],"categories_segments":[],"categories_sizes":[],"default_left":[1,1,1,1,1,1,1,1,1,1,1,1,1,1,1,1,0,1,1,1,1,1,1,1,1,1,1,1,0,1,1,0,0,0,0,0,0,0,0,0,0,0,0,0,0,0,0,0,0,0,0,0,0,0,0,0,0,0,0],"id":1,"left_children":[1,3,5,7,9,11,13,15,17,19,21,23,25,27,29,31,-1,33,35,37,39,41,43,45,47,49,51,53,-1,55,57,-1,-1,-1,-1,-1,-1,-1,-1,-1,-1,-1,-1,-1,-1,-1,-1,-1,-1,-1,-1,-1,-1,-1,-1,-1,-1,-1,-1],"loss_changes":[8.940625E2,1.2823828E2,2.4327484E1,5.7461426E1,1.7415382E1,2.6355057E1,4.2033997E0,6.6307983E0,2.0659903E1,5.574741E0,2.9842072E1,1.6911453E1,8.813247E0,2.478302E0,3.6699486E0,2.305481E0,0E0,3.6709309E0,6.740621E0,2.2141085E0,5.6458426E0,1.3934174E1,1.2908876E1,1.569648E1,5.0964203E0,2.5926447E0,5.651505E0,2.4799194E0,0E0,3.0611212E0,2.5950985E0,0E0,0E0,0E0,0E0,0E0,0E0,0E0,0E0,0E0,0E0,0E0,0E0,0E0,0E0,0E0,0E0,0E0,0E0,0E0,0E0,0E0,0E0,0E0,0E0,0E0,0E0,0E0,0E0],"parents":[2147483647,0,0,1,1,2,2,3,3,4,4,5,5,6,6,7,7,8,8,9,9,10,10,11,11,12,12,13,13,14,14,15,15,17,17,18,18,19,19,20,20,21,21,22,22,23,23,24,24,25,25,26,26,27,27,29,29,30,30],"right_children":[2,4,6,8,10,12,14,16,18,20,22,24,26,28,30,32,-1,34,36,38,40,42,44,46,48,50,52,54,-1,56,58,-1,-1,-1,-1,-1,-1,-1,-1,-1,-1,-1,-1,-1,-1,-1,-1,-1,-1,-1,-1,-1,-1,-1,-1,-1,-1,-1,-1],"split_conditions":[5E-1,5E-1,5E-1,5E-1,5.49E2,5E-1,3.518E3,5E-1,5E-1,4.5E0,5E-1,5E-1,4.0455E3,1.874E3,3.792E3,5E-1,1.9933071E-2,5E-1,1.5E1,5E-1,6.5E0,1.224E3,5E-1,7.095E2,5E-1,2.258E3,2.87E2,5E-1,2.527873E-2,5E-1,1.895E2,2.3703948E-1,3.2196957E-1,2.9782894E-1,5.9348743E-2,2.037485E-1,-9.714957E-2,7.755537E-2,2.384682E-1,-2.1902423E-1,1.7597213E-2,2.6328868E-1,7.586234E-2,1.4186211E-1,-5.068959E-3,-1.2808377E-1,-3.6534425E-2,-7.51583E-2,-2.1973537E-1,1.1932809E-2,2.577885E-1,4.105745E-2,-1.93382E-1,-1.8265283E-1,-1.2789242E-1,-1.0812839E-1,1.412157E-1,-1.6390179E-1,-8.1914425E-2],"split_indices":[5,12,4,10,3,8,5,14,16,1,4,16,5,3,5,0,0,14,1,18,1,3,20,3,20,5,3,10,0,15,3,0,0,0,0,0,0,0,0,0,0,0,0,0,0,0,0,0,0,0,0,0,0,0,0,0,0,0,0],"split_type":[0,0,0,0,0,0,0,0,0,0,0,0,0,0,0,0,0,0,0,0,0,0,0,0,0,0,0,0,0,0,0,0,0,0,0,0,0,0,0,0,0,0,0,0,0,0,0,0,0,0,0,0,0,0,0,0,0,0,0],"sum_hessian":[1.4517283E3,6.0116754E2,8.505608E2,3.0897308E2,2.9219443E2,4.2336865E2,4.271921E2,2.7015326E2,3.8819813E1,1.0815321E2,1.8404123E2,3.8611002E2,3.7258633E1,3.4952875E2,7.766338E1,2.6690372E2,3.24955E0,1.393304E1,2.4886774E1,1.9663788E1,8.8489426E1,8.562081E1,9.842041E1,3.1028436E2,7.582567E1,1.0397878E1,2.6860756E1,3.4728287E2,2.2458835E0,5.9537725E0,7.170961E1,2.8653383E1,2.3825034E2,9.760663E0,4.172377E0,2.463164E0,2.242361E1,1.5430142E1,4.233644E0,3.2321966E0,8.5257225E1,6.3170036E1,2.2450773E1,3.892133E1,5.949908E1,1.8129378E2,1.2899059E2,1.3133741E1,6.269193E1,2.234289E0,8.163589E0,2.2892414E1,3.9683409E0,2.9765643E2,4.9626427E1,2.7245758E0,3.2291968E0,4.1678513E1,3.0031094E1],"tree_param":{"num_deleted":"0","num_feature":"22","num_nodes":"59","size_leaf_vector":"0"}},{"base_weights":[8.6029405E-3,7.9540503E-1,-5.332099E-1,1.20948E0,3.7954545E-1,-3.902246E-1,-6.7524034E-1,1.3595419E0,2.1360609E-1,1.7469953E-1,6.094896E-1,-4.5353743E-1,2.6002643E-1,-5.119091E-1,-7.4195784E-1,1.3759705E0,8.444679E-2,1.0143335E0,-2.408515E-1,8.6323583E-1,1.2056241E-1,1.0676814E0,1.9587897E-1,-3.6847368E-1,-8.671578E-1,5.2927643E-1,-4.3113533E-1,-6.1515075E-1,6.3276607E-1,-7.9635644E-1,-5.611045E-1,1.0060252E0,1.4174122E0,1.5973213E-1,1.3165174E0,7.4083996E-1,-4.2327136E-1,3.3551E-1,1.346883E0,3.4856766E-1,-4.2954728E-2,1.4660758E0,3.0831465E-1,4.1668454E-1,-2.210872E-1,-5.8454514E-1,1.5489072E-1,-9.089944E-1,6.685346E-2,-2.3146962E-1,6.867847E-1,2.860093E-1,-9.5699376E-1,-4.0957445E-1,-8.162539E-1,1.5817991E0,-3.405775E-1,-8.611077E-1,-4.866671E-1,-6.754889E-1,3.8842958E-1],"categories":[],"categories_nodes":[],"categories_segments":[],"categories_sizes":[],"default_left":[1,1,1,1,1,1,1,1,1,1,1,1,1,1,1,1,0,1,1,1,1,1,1,1,1,1,1,1,1,1,1,0,0,0,0,0,0,0,0,0,0,0,0,0,0,0,0,0,0,0,0,0,0,0,0,0,0,0,0,0,0],"id":2,"left_children":[1,3,5,7,9,11,13,15,17,19,21,23,25,27,29,31,-1,33,35,37,39,41,43,45,47,49,51,53,55,57,59,-1,-1,-1,-1,-1,-1,-1,-1,-1,-1,-1,-1,-1,-1,-1,-1,-1,-1,-1,-1,-1,-1,-1,-1,-1,-1,-1,-1,-1,-1],"loss_changes":[6.021195E2,9.872467E1,1.6723328E1,4.277249E1,1.3498451E1,1.7375748E1,4.1779327E0,5.1257935E0,1.4407492E1,5.642101E0,2.550365E1,1.3133553E1,7.2680845E0,1.510545E1,2.4527588E0,2.3606262E0,0E0,3.4784422E0,4.9046774E0,2.374753E0,5.3866725E0,1.895372E1,6.7701125E0,3.6150734E1,2.5805054E0,3.4748507E0,4.4810257E0,4.4088745E0,1.0510531E1,4.0766296E0,8.032181E0,0E0,0E0,0E0,0E0,0E0,0E0,0E0,0E0,0E0,0E0,0E0,0E0,0E0,0E0,0E0,0E0,0E0,0E0,0E0,0E0,0E0,0E0,0E0,0E0,0E0,0E0,0E0,0E0,0E0,0E0],"parents":[2147483647,0,0,1,1,2,2,3,3,4,4,5,5,6,6,7,7,8,8,9,9,10,10,11,11,12,12,13,13,14,14,15,15,17,17,18,18,19,19,20,20,21,21,22,22,23,23,24,24,25,25,26,26,27,27,28,28,29,29,30,30],"right_children":[2,4,6,8,10,12,14,16,18,20,22,24,26,28,30,32,-1,34,36,38,40,42,44,46,48,50,52,54,56,58,60,-1,-1,-1,-1,-1,-1,-1,-1,-1,-1,-1,-1,-1,-1,-1,-1,-1,-1,-1,-1,-1,-1,-1,-1,-1,-1,-1,-1,-1,-1],"split_conditions":[5E-1,5E-1,5E-1,5E-1,7.635E2,5E-1,5E-1,5E-1,5E-1,5E-1,5E-1,1.2705E3,8.59E3,5E-1,2.3795E3,5E-1,1.6889358E-2,8.8E1,1.75E1,5E-1,5E-1,1.224E3,1.252E3,7.095E2,1.7725E3,5.9E1,1.67E2,3.72E2,9.785E2,4.25E1,9.56E2,2.0120504E-1,2.8348243E-1,3.1946428E-2,2.633035E-1,1.48168E-1,-8.465427E-2,6.7102E-2,2.693766E-1,6.971353E-2,-8.590946E-3,2.9321516E-1,6.166293E-2,8.333691E-2,-4.421744E-2,-1.1690903E-1,3.0978143E-2,-1.8179888E-1,1.3370693E-2,-4.6293925E-2,1.3735694E-1,5.7201862E-2,-1.9139875E-1,-8.1914894E-2,-1.6325079E-1,3.1635985E-1,-6.81155E-2,-1.7222154E-1,-9.7333424E-2,-1.3509779E-1,7.7685915E-2],"split_indices":[5,12,4,10,3,8,20,14,16,1,4,3,5,10,5,0,0,3,1,0,20,3,3,3,3,3,3,3,5,1,3,0,0,0,0,0,0,0,0,0,0,0,0,0,0,0,0,0,0,0,0,0,0,0,0,0,0,0,0,0,0],"split_type":[0,0,0,0,0,0,0,0,0,0,0,0,0,0,0,0,0,0,0,0,0,0,0,0,0,0,0,0,0,0,0,0,0,0,0,0,0,0,0,0,0,0,0,0,0,0,0,0,0,0,0,0,0,0,0,0,0,0,0,0,0],"sum_hessian":[1.410438E3,5.749897E2,8.3544836E2,2.8715677E2,2.8783292E2,4.1819208E2,4.172563E2,2.4923586E2,3.7920906E1,1.5315471E2,1.3467822E2,3.8136255E2,3.6829517E1,1.2352565E2,2.9373062E2,2.459874E2,3.2484658E0,1.3283752E1,2.4637152E1,1.00747595E1,1.4307996E2,6.314535E1,7.153287E1,3.1787943E2,6.3483135E1,2.6672976E1,1.0156542E1,1.1373056E2,9.795093E0,2.2319334E2,7.053729E1,2.7326094E1,2.186613E2,3.8693876E0,9.414365E0,3.3810217E0,2.125613E1,5.6277814E0,4.446978E0,5.9283897E1,8.379605E1,4.0806152E1,2.2339201E1,4.6767624E1,2.4765245E1,2.2490874E2,9.297068E1,6.078712E1,2.6960144E0,4.4946733E0,2.2178303E1,4.489733E0,5.6668086E0,5.774143E1,5.598913E1,4.6429687E0,5.152124E0,1.831243E2,4.006904E1,6.3211243E1,7.3260517E0],"tree_param":{"num_deleted":"0","num_feature":"22","num_nodes":"61","size_leaf_vector":"0"}},{"base_weights":[9.881597E-3,6.8302447E-1,-4.3920085E-1,1.0809653E0,3.1361663E-1,-3.7627617E-1,-7.050954E-1,1.2260721E0,1.8803264E-1,1.431043E-1,5.1041883E-1,-2.9437137E-1,-6.6550326E-1,-3.867684E-1,-7.7007437E-1,1.2426434E0,7.155948E-2,-9.5459305E-2,1.1632519E0,1.6810507E-1,-9.949554E-1,9.2516214E-1,1.5798163E-1,-3.834829E-1,3.8388106E-1,-6.902693E-1,2.94435E-1,-1.6363318E-1,-8.398553E-1,-5.0654733E-1,-8.627417E-1,8.668174E-1,1.28748E0,-5.3164417E-1,1.5103516E-1,2.239804E-1,-3.2369354E-1,1.3126503E0,2.5093937E-1,3.4658525E-2,8.6899894E-1,-3.162466E-1,-6.7187035E-1,6.583203E-1,-3.2048059E-1,-7.204969E-1,-2.0418356E-1,-6.355297E-1,1.3726712E-2,-1.0818146E0,-3.1979316E-1,-7.7252054E-1,-4.8547585E-2,-9.279709E-1,-4.4302592E-1],"categories":[],"categories_nodes":[],"categories_segments":[],"categories_sizes":[],"default_left":[1,1,1,1,1,1,1,1,1,1,1,1,1,1,1,1,0,1,0,1,0,1,1,1,1,1,0,1,1,1,1,0,0,0,0,0,0,0,0,0,0,0,0,0,0,0,0,0,0,0,0,0,0,0,0],"id":3,"left_children":[1,3,5,7,9,11,13,15,17,19,21,23,25,27,29,31,-1,33,-1,35,-1,37,39,41,43,45,-1,47,49,51,53,-1,-1,-1,-1,-1,-1,-1,-1,-1,-1,-1,-1,-1,-1,-1,-1,-1,-1,-1,-1,-1,-1,-1,-1],"loss_changes":[4.1168768E2,7.977348E1,1.3402496E1,3.3710022E1,9.458141E0,1.5503273E1,2.9120407E0,4.2185974E0,1.0561055E1,4.536628E0,1.9069473E1,3.1470676E1,3.6614227E0,2.725299E0,2.685524E0,2.623169E0,0E0,3.3283339E0,0E0,4.2252526E0,0E0,1.539436E1,6.30723E0,8.679306E0,1.1941313E1,1.9408188E0,0E0,1.7005775E0,7.993221E-1,4.309822E0,2.1399002E0,0E0,0E0,0E0,0E0,0E0,0E0,0E0,0E0,0E0,0E0,0E0,0E0,0E0,0E0,0E0,0E0,0E0,0E0,0E0,0E0,0E0,0E0,0E0,0E0],"parents":[2147483647,0,0,1,1,2,2,3,3,4,4,5,5,6,6,7,7,8,8,9,9,10,10,11,11,12,12,13,13,14,14,15,15,17,17,19,19,21,21,22,22,23,23,24,24,25,25,27,27,28,28,29,29,30,30],"right_children":[2,4,6,8,10,12,14,16,18,20,22,24,26,28,30,32,-1,34,-1,36,-1,38,40,42,44,46,-1,48,50,52,54,-1,-1,-1,-1,-1,-1,-1,-1,-1,-1,-1,-1,-1,-1,-1,-1,-1,-1,-1,-1,-1,-1,-1,-1],"split_conditions":[5E-1,5E-1,5E-1,5E-1,7.635E2,1.1295E3,5E-1,5E-1,5E-1,7.56E2,5E-1,8.89E2,6.15E1,8.805E2,2.45E1,5E-1,1.4311897E-2,5E-1,2.3265038E-1,4.35E1,-1.9899109E-1,1.224E3,5E-1,5E-1,1.0225E3,2.1795E3,5.8887E-2,1.0635E3,1.381E3,5.83E2,1.2765E3,1.7336349E-1,2.57496E-1,-1.0632884E-1,3.0207032E-2,4.479608E-2,-6.473871E-2,2.6253006E-1,5.0187875E-2,6.931705E-3,1.737998E-1,-6.324932E-2,-1.3437407E-1,1.3166407E-1,-6.4096116E-2,-1.4409938E-1,-4.0836714E-2,-1.2710594E-1,2.7453424E-3,-2.1636294E-1,-6.395864E-2,-1.545041E-1,-9.7095175E-3,-1.8559419E-1,-8.860519E-2],"split_indices":[5,12,16,10,3,3,20,14,15,3,4,3,1,3,1,0,0,0,0,1,0,3,18,12,5,5,0,5,3,3,3,0,0,0,0,0,0,0,0,0,0,0,0,0,0,0,0,0,0,0,0,0,0,0,0],"split_type":[0,0,0,0,0,0,0,0,0,0,0,0,0,0,0,0,0,0,0,0,0,0,0,0,0,0,0,0,0,0,0,0,0,0,0,0,0,0,0,0,0,0,0,0,0,0,0,0,0,0,0,0,0,0,0],"sum_hessian":[1.359874E3,5.439742E2,8.1589984E2,2.609463E2,2.8302792E2,6.6171765E2,1.5418219E2,2.2414786E2,3.679843E1,1.5256793E2,1.3045998E2,5.172562E2,1.4446144E2,2.7315899E1,1.2686629E2,2.2090082E2,3.2470424E0,2.9209478E1,7.5889525E0,1.5012234E2,2.4455826E0,5.9185844E1,7.127414E1,4.5757306E2,5.968319E1,1.4110199E2,3.3594468E0,1.921439E1,8.101508E0,3.4687744E1,9.217854E1,2.5712046E1,1.9518877E2,1.0128951E1,1.9080528E1,1.3529544E2,1.4826918E1,3.6983715E1,2.220213E1,6.16329E1,9.641235E0,3.727618E2,8.481124E1,4.2996067E1,1.668712E1,1.3238715E2,8.714842E0,4.5431857E0,1.4671205E1,4.7919054E0,3.3096025E0,2.1509722E1,1.3178021E1,7.873169E1,1.3446855E1],"tree_param":{"num_deleted":"0","num_feature":"22","num_nodes":"55","size_leaf_vector":"0"}},{"base_weights":[1.0087086E-2,-3.1393567E-1,6.775355E-1,4.5607653E-1,-3.688648E-1,1.0870515E0,3.1600127E-1,1.2094496E0,5.101131E-2,-2.3502919E-1,-5.0382024E-1,1.1759299E0,4.0490955E-1,1.0726605E-1,4.5891458E-1,1.3413042E0,2.3857883E-1,-8.8504344E-2,4.48208E-1,-1.4743425E-1,-6.3789356E-1,-9.7285163E-1,-4.8018596E-1,1.1921782E0,4.9538466E-1,1.0846559E0,4.5389026E-2,-9.934832E-2,3.0986813E-1,8.0404264E-1,1.937055E-1,-3.2598054E-1,2.1663123E-1,1.0053474E0,3.3027638E-2,-5.993168E-2,-4.9871048E-1,-1.6676848E-1,-7.3249716E-1,-1.284817E-1,-1.2016846E0,-3.5251674E-1,-5.3419185E-1,5.748904E-1,1.2072767E0,-1.780198E-1,9.662369E-1,-2.3868555E-1,6.648358E-1,-1.8347645E-2,-6.6316736E-1,8.0326915E-1,3.2072734E-2,1.050788E0,2.182292E-1,3.5020137E-1,-2.618015E-1],"categories":[],"categories_nodes":[],"categories_segments":[],"categories_sizes":[],"default_left":[1,1,1,1,1,1,1,1,1,1,1,1,1,1,1,0,0,1,1,1,1,1,1,1,1,0,1,1,1,1,1,0,0,0,0,0,0,0,0,0,0,0,0,0,0,0,0,0,0,0,0,0,0,0,0,0,0],"id":4,"left_children":[1,3,5,7,9,11,13,15,17,19,21,23,25,27,29,-1,-1,31,33,35,37,39,41,43,45,-1,47,49,51,53,55,-1,-1,-1,-1,-1,-1,-1,-1,-1,-1,-1,-1,-1,-1,-1,-1,-1,-1,-1,-1,-1,-1,-1,-1,-1,-1],"loss_changes":[2.8395398E2,3.7553734E1,6.3184555E1,1.8035221E1,1.4793396E1,1.1696854E1,6.791157E0,2.3288307E0,2.2346754E0,1.4599989E1,4.080055E0,1.3678741E0,5.97973E0,3.9864526E0,1.2274885E1,0E0,0E0,2.2552767E0,2.3866518E0,1.0523136E1,3.1789856E0,3.4595375E0,2.5179367E0,9.1152954E-1,2.0240388E0,0E0,3.1817513E0,2.1590705E0,6.547063E0,8.254856E0,5.6599464E0,0E0,0E0,0E0,0E0,0E0,0E0,0E0,0E0,0E0,0E0,0E0,0E0,0E0,0E0,0E0,0E0,0E0,0E0,0E0,0E0,0E0,0E0,0E0,0E0,0E0,0E0],"parents":[2147483647,0,0,1,1,2,2,3,3,4,4,5,5,6,6,7,7,8,8,9,9,10,10,11,11,12,12,13,13,14,14,17,17,18,18,19,19,20,20,21,21,22,22,23,23,24,24,26,26,27,27,28,28,29,29,30,30],"right_children":[2,4,6,8,10,12,14,16,18,20,22,24,26,28,30,-1,-1,32,34,36,38,40,42,44,46,-1,48,50,52,54,56,-1,-1,-1,-1,-1,-1,-1,-1,-1,-1,-1,-1,-1,-1,-1,-1,-1,-1,-1,-1,-1,-1,-1,-1,-1,-1],"split_conditions":[5E-1,1.05E1,5E-1,5E-1,5E-1,5E-1,5.75E2,5E-1,5E-1,5E-1,1.58E2,5E-1,5E-1,5E-1,5E-1,2.6826084E-1,4.7715764E-2,8.27E2,2.5E0,1.1275E3,5E-1,1.4E1,5E-1,2.5E0,4.415E2,2.1693118E-1,3.85E1,5.21E2,1.85E1,1.2175E3,1.255E3,-6.519611E-2,4.3326247E-2,2.0106947E-1,6.605528E-3,-1.1986337E-2,-9.97421E-2,-3.3353698E-2,-1.4649944E-1,-2.5696341E-2,-2.4033692E-1,-7.050335E-2,-1.0683837E-1,1.14978075E-1,2.4145535E-1,-3.5603963E-2,1.9324738E-1,-4.773711E-2,1.3296716E-1,-3.669529E-3,-1.3263348E-1,1.6065383E-1,6.414547E-3,2.1015762E-1,4.364584E-2,7.004028E-2,-5.2360304E-2],"split_indices":[0,1,14,12,4,10,3,14,18,16,5,12,16,4,4,0,0,3,1,3,20,1,20,1,3,0,1,3,1,3,3,0,0,0,0,0,0,0,0,0,0,0,0,0,0,0,0,0,0,0,0,0,0,0,0,0,0],"split_type":[0,0,0,0,0,0,0,0,0,0,0,0,0,0,0,0,0,0,0,0,0,0,0,0,0,0,0,0,0,0,0,0,0,0,0,0,0,0,0,0,0,0,0,0,0,0,0,0,0,0,0,0,0,0,0,0,0],"sum_hessian":[1.3109863E3,8.8289935E2,4.2808694E2,5.8302036E1,8.245973E2,1.997828E2,2.2830415E2,1.9691807E1,3.861023E1,4.153928E2,4.0920453E2,1.7611264E2,2.3670158E1,9.349643E1,1.3480772E2,1.7001303E1,2.6905043E0,2.914885E1,9.461379E0,3.4232657E2,7.306622E1,1.770374E1,3.915008E2,1.7127164E2,4.841001E0,7.4906387E0,1.617952E1,4.6542175E1,4.695425E1,5.7694996E1,7.7112724E1,1.6353323E1,1.27955265E1,3.4330394E0,6.02834E0,2.7499594E2,6.733061E1,1.2680461E1,6.038576E1,4.1078105E0,1.3595928E1,1.186176E2,2.7288318E2,5.022121E0,1.6624953E2,2.2479472E0,2.5930538E0,1.1513965E1,4.665556E0,4.15985E1,4.943678E0,1.6232183E1,3.0722069E1,4.0037445E1,1.7657555E1,5.756622E1,1.9546505E1],"tree_param":{"num_deleted":"0","num_feature":"22","num_nodes":"57","size_leaf_vector":"0"}},{"base_weights":[1.1183157E-2,-2.5751686E-1,5.908179E-1,3.4956494E-1,-3.0683616E-1,1.0049516E0,2.613327E-1,1.1223907E0,1.5171619E-2,-1.9621296E-1,-4.2019996E-1,1.0996155E0,3.5057902E-1,3.0980166E-2,3.6773962E-1,1.2540789E0,2.047551E-1,8.3925134E-1,-5.914255E-2,-1.2246395E-1,-5.440271E-1,-1.0598029E0,-3.9947566E-1,1.117802E0,4.3292704E-1,9.9546987E-1,4.0921926E-2,1.5411541E-1,-3.9640588E-1,6.192058E-1,1.7773157E-1,-2.9220483E-1,2.0631404E-1,-6.1804865E-2,-5.004246E-1,-1.3681428E-1,-6.295977E-1,-4.302427E-1,-1.1463552E0,-4.3521032E-1,-2.4264836E-1,1.140267E0,6.025221E-1,-1.5334077E-1,8.551854E-1,8.411816E-1,-1.3346924E-1,2.8004712E-1,-5.228304E-1,-7.3702425E-1,8.475155E-2,8.6147636E-1,2.6634482E-1,4.4541228E-1,-2.0867808E-2],"categories":[],"categories_nodes":[],"categories_segments":[],"categories_sizes":[],"default_left":[1,1,1,1,1,1,1,1,1,1,1,1,1,1,1,0,0,0,1,1,1,1,1,1,1,0,1,1,1,1,1,0,0,0,0,0,0,0,0,0,0,0,0,0,0,0,0,0,0,0,0,0,0,0,0],"id":5,"left_children":[1,3,5,7,9,11,13,15,17,19,21,23,25,27,29,-1,-1,-1,31,33,35,37,39,41,43,-1,45,47,49,51,53,-1,-1,-1,-1,-1,-1,-1,-1,-1,-1,-1,-1,-1,-1,-1,-1,-1,-1,-1,-1,-1,-1,-1,-1],"loss_changes":[1.9720349E2,2.6010738E1,5.445952E1,1.6902672E1,9.958656E0,1.0600052E1,5.496171E0,2.1309967E0,2.9103253E0,1.0376293E1,4.806755E0,1.3888855E0,4.728124E0,3.8549263E0,7.2293587E0,0E0,0E0,0E0,2.7690086E0,7.6996307E0,2.3854923E0,1.4859772E-1,2.0452156E0,1.0461578E0,1.5505704E0,0E0,2.509413E0,4.9788175E0,2.750991E0,5.3878574E0,4.7352066E0,0E0,0E0,0E0,0E0,0E0,0E0,0E0,0E0,0E0,0E0,0E0,0E0,0E0,0E0,0E0,0E0,0E0,0E0,0E0,0E0,0E0,0E0,0E0,0E0],"parents":[2147483647,0,0,1,1,2,2,3,3,4,4,5,5,6,6,7,7,8,8,9,9,10,10,11,11,12,12,13,13,14,14,18,18,19,19,20,20,21,21,22,22,23,23,24,24,26,26,27,27,28,28,29,29,30,30],"right_children":[2,4,6,8,10,12,14,16,18,20,22,24,26,28,30,-1,-1,-1,32,34,36,38,40,42,44,-1,46,48,50,52,54,-1,-1,-1,-1,-1,-1,-1,-1,-1,-1,-1,-1,-1,-1,-1,-1,-1,-1,-1,-1,-1,-1,-1,-1],"split_conditions":[5E-1,1.25E1,5E-1,5E-1,5E-1,5E-1,4.41E2,5E-1,1.245E2,5E-1,7E0,5E-1,5E-1,3.305E2,5E-1,2.5081578E-1,4.095102E-2,1.6785027E-1,8.19E2,1.2815E3,5E-1,9.6E1,3.518E3,5E-1,4.415E2,1.9909398E-1,1.005E2,4.05E1,2.4E1,2.35E1,5E-1,-5.8440965E-2,4.126281E-2,-1.2360973E-2,-1.0008492E-1,-2.7362857E-2,-1.2591955E-1,-8.6048536E-2,-2.2927104E-1,-8.704206E-2,-4.8529673E-2,2.280534E-1,1.2050442E-1,-3.0668154E-2,1.7103708E-1,1.6823632E-1,-2.6693849E-2,5.6009423E-2,-1.0456609E-1,-1.4740485E-1,1.695031E-2,1.7229527E-1,5.3268965E-2,8.908246E-2,-4.1735615E-3],"split_indices":[0,1,14,12,4,10,3,14,3,16,5,12,16,3,4,0,0,0,3,3,20,3,5,6,3,0,3,1,1,1,20,0,0,0,0,0,0,0,0,0,0,0,0,0,0,0,0,0,0,0,0,0,0,0,0],"split_type":[0,0,0,0,0,0,0,0,0,0,0,0,0,0,0,0,0,0,0,0,0,0,0,0,0,0,0,0,0,0,0,0,0,0,0,0,0,0,0,0,0,0,0,0,0,0,0,0,0,0,0,0,0,0,0],"sum_hessian":[1.2641945E3,8.6415546E2,4.0003897E2,6.447169E1,7.996838E2,1.763423E2,2.2369667E2,1.8759523E1,4.5712162E1,4.061163E2,3.935675E2,1.5346158E2,2.2880716E1,7.10901E1,1.5260657E2,1.608461E1,2.674913E0,2.9298108E0,4.278235E1,3.3618515E2,6.993117E1,1.0778483E1,3.82789E2,1.487278E2,4.7337847E0,6.7040777E0,1.617664E1,5.5685745E1,1.5404358E1,6.470883E1,8.789774E1,2.2727543E1,2.0054808E1,2.9069492E2,4.549024E1,1.2594664E1,5.7336502E1,2.0243983E0,8.754085E0,3.1030734E2,7.248166E1,1.4135226E2,7.375528E0,2.2486255E0,2.4851594E0,2.2103019E0,1.3966337E1,4.7445755E1,8.239989E0,8.708037E0,6.6963205E0,3.7512047E1,2.7196781E1,3.6908344E1,5.09894E1],"tree_param":{"num_deleted":"0","num_feature":"22","num_nodes":"55","size_leaf_vector":"0"}},{"base_weights":[1.1659813E-2,-2.1112984E-1,5.142491E-1,3.4294936E-1,-2.492699E-1,9.3450487E-1,2.1472366E-1,1.0153118E0,4.8200853E-2,-1.5649696E-1,-3.4581518E-1,1.035629E0,3.07791E-1,2.2532415E-2,3.053404E-1,1.1616634E0,1.7577974E-1,-6.81556E-2,3.8603628E-1,-1.9906704E-1,3.4136087E-1,-5.295314E-1,-3.0693352E-1,1.0560192E0,3.8090116E-1,9.1934973E-1,4.1012913E-2,-1.8072303E-1,2.2770752E-1,4.336633E-1,-7.343024E-2,1.22955255E-1,-2.6434445E-1,8.829949E-1,3.4246493E-2,-2.540644E-1,3.0072522E-1,1.1420531E0,9.8822124E-2,-6.531747E-1,5.1697516E-1,1.0200342E0,-3.213093E-1,3.7967435E-1,1.0751004E0,-1.321374E-1,7.6337534E-1,-1.8719153E-1,5.2814084E-1,-4.407064E-1,1.768019E-1,5.905877E-1,-4.005965E-2,6.50611E-1,1.727477E-1,3.1859508E-1,-3.5659522E-1],"categories":[],"categories_nodes":[],"categories_segments":[],"categories_sizes":[],"default_left":[1,1,1,1,1,1,1,1,1,1,1,1,1,1,1,0,0,1,1,1,1,1,1,1,1,0,1,1,1,1,1,0,0,0,0,0,0,0,0,0,0,0,0,0,0,0,0,0,0,0,0,0,0,0,0,0,0],"id":6,"left_children":[1,3,5,7,9,11,13,15,17,19,21,23,25,27,29,-1,-1,31,33,35,37,39,41,43,45,-1,47,49,51,53,55,-1,-1,-1,-1,-1,-1,-1,-1,-1,-1,-1,-1,-1,-1,-1,-1,-1,-1,-1,-1,-1,-1,-1,-1,-1,-1],"loss_changes":[1.3695512E2,1.7995277E1,4.7086113E1,1.0851088E1,7.0530396E0,9.569519E0,3.8355923E0,1.8492794E0,1.5707047E0,8.682814E0,2.6091309E0,1.3856659E0,3.73119E0,3.0343463E0,7.3156824E0,0E0,0E0,1.1600605E0,1.7556068E0,1.0386657E1,6.176689E0,8.928955E0,6.4820747E0,1.2606964E0,1.2014985E0,0E0,2.0032291E0,3.481141E0,3.5373173E0,6.231922E0,4.4182267E0,0E0,0E0,0E0,0E0,0E0,0E0,0E0,0E0,0E0,0E0,0E0,0E0,0E0,0E0,0E0,0E0,0E0,0E0,0E0,0E0,0E0,0E0,0E0,0E0,0E0,0E0],"parents":[2147483647,0,0,1,1,2,2,3,3,4,4,5,5,6,6,7,7,8,8,9,9,10,10,11,11,12,12,13,13,14,14,17,17,18,18,19,19,20,20,21,21,22,22,23,23,24,24,26,26,27,27,28,28,29,29,30,30],"right_children":[2,4,6,8,10,12,14,16,18,20,22,24,26,28,30,-1,-1,32,34,36,38,40,42,44,46,-1,48,50,52,54,56,-1,-1,-1,-1,-1,-1,-1,-1,-1,-1,-1,-1,-1,-1,-1,-1,-1,-1,-1,-1,-1,-1,-1,-1,-1,-1],"split_conditions":[5E-1,1.05E1,5E-1,5E-1,5E-1,5E-1,4.41E2,5E-1,5E-1,5E-1,7.175E2,5E-1,5E-1,5E-1,1.2335E3,2.3233269E-1,3.515595E-2,5E-1,2.5E0,5E-1,2.6925E3,5E-1,7.225E2,2.5E0,4.415E2,1.8386994E-1,3.85E1,2.35E1,1.95E1,2.35E1,5E-1,2.4591051E-2,-5.286889E-2,1.7659898E-1,6.8492987E-3,-5.081288E-2,6.0145047E-2,2.2841063E-1,1.9764425E-2,-1.3063495E-1,1.0339504E-1,2.0400684E-1,-6.426186E-2,7.593487E-2,2.1502009E-1,-2.6427481E-2,1.5267508E-1,-3.7438307E-2,1.0562817E-1,-8.8141285E-2,3.536038E-2,1.1811753E-1,-8.01193E-3,1.301222E-1,3.454954E-2,6.371902E-2,-7.131904E-2],"split_indices":[0,1,14,12,4,10,3,14,18,7,5,12,16,4,3,0,0,4,1,8,5,10,5,1,3,0,1,1,1,1,20,0,0,0,0,0,0,0,0,0,0,0,0,0,0,0,0,0,0,0,0,0,0,0,0,0,0],"split_type":[0,0,0,0,0,0,0,0,0,0,0,0,0,0,0,0,0,0,0,0,0,0,0,0,0,0,0,0,0,0,0,0,0,0,0,0,0,0,0,0,0,0,0,0,0,0,0,0,0,0,0,0,0,0,0,0,0],"sum_hessian":[1.2211531E3,8.4649536E2,3.746577E2,5.4001236E1,7.9249414E2,1.5502563E2,2.1963208E2,1.5713005E1,3.8288227E1,4.0547925E2,3.870149E2,1.329249E2,2.210073E1,7.077415E1,1.4885793E2,1.3053711E1,2.6592946E0,2.9073175E1,9.215054E0,3.7409207E2,3.138715E1,6.539652E1,3.2161838E2,1.2831586E2,4.6090384E0,5.969713E0,1.6131018E1,3.5613266E1,3.5160885E1,1.1108034E2,3.7777596E1,1.4916268E1,1.4156907E1,3.1935928E0,6.021461E0,3.3745053E2,3.6641552E1,6.434898E0,2.4952253E1,5.882257E1,6.573953E0,2.6971853E0,3.1892117E2,4.094165E0,1.24221695E2,2.2480695E0,2.3609688E0,1.1404218E1,4.7268004E0,2.0484663E1,1.5128605E1,1.4417108E1,2.0743776E1,5.9834892E1,5.124544E1,1.57909E1,2.1986696E1],"tree_param":{"num_deleted":"0","num_feature":"22","num_nodes":"57","size_leaf_vector":"0"}},{"base_weights":[1.2696411E-2,-1.7156348E-1,4.460389E-1,2.6977572E-1,-2.063608E-1,8.701505E-1,1.7631921E-1,9.667284E-1,2.6149543E-2,-1.6268586E-1,-3.9793772E-1,9.791074E-1,2.6796496E-1,2.1678169E-1,-1.8463953E-1,1.1189928E0,1.5092155E-1,3.2531857E-1,-1.2265551E-1,-7.160314E-2,-2.6337263E-1,-3.04173E-1,-7.0617783E-1,1.0019354E0,3.3676314E-1,8.51841E-1,3.676848E-2,3.8518235E-1,9.7745456E-2,-4.514169E-1,2.0567474E-1,6.634909E-1,1.7299868E-1,6.83045E-2,-4.5255816E-1,-1.869915E-1,1.2458056E-1,-3.196694E-1,1.7293213E-1,-6.197444E-3,-4.8744407E-1,-8.77953E-1,1.1485941E0,1.0308529E0,4.1520858E-1,7.3169005E-1,-1.1892221E-1,6.956525E-1,-1.07845195E-1,9.80646E-2,5.1833844E-1,1.7897585E-1,-3.8860333E-1,-1.868934E-1,-9.108265E-1,-4.305993E-1,4.516959E-1],"categories":[],"categories_nodes":[],"categories_segments":[],"categories_sizes":[],"default_left":[1,1,1,1,1,1,1,1,1,1,1,1,1,1,1,0,0,1,1,1,1,1,1,1,1,0,1,1,1,1,1,0,0,0,0,0,0,0,0,0,0,0,0,0,0,0,0,0,0,0,0,0,0,0,0,0,0],"id":7,"left_children":[1,3,5,7,9,11,13,15,17,19,21,23,25,27,29,-1,-1,31,33,35,37,39,41,43,45,-1,47,49,51,53,55,-1,-1,-1,-1,-1,-1,-1,-1,-1,-1,-1,-1,-1,-1,-1,-1,-1,-1,-1,-1,-1,-1,-1,-1,-1,-1],"loss_changes":[9.459561E1,1.2822283E1,4.027749E1,1.0364014E1,6.3872375E0,8.735939E0,3.2137628E0,1.7963362E0,2.1040294E0,5.7555065E0,3.9027805E0,1.3599396E0,2.9909873E0,3.8884573E0,2.4298203E0,0E0,0E0,6.926644E-1,2.0273774E0,7.5380373E0,7.3916836E0,6.058401E0,1.1354347E1,1.4599609E0,1.0730007E0,0E0,1.7028027E0,3.0371332E0,4.65571E0,1.4879172E0,1.7284039E0,0E0,0E0,0E0,0E0,0E0,0E0,0E0,0E0,0E0,0E0,0E0,0E0,0E0,0E0,0E0,0E0,0E0,0E0,0E0,0E0,0E0,0E0,0E0,0E0,0E0,0E0],"parents":[2147483647,0,0,1,1,2,2,3,3,4,4,5,5,6,6,7,7,8,8,9,9,10,10,11,11,12,12,13,13,14,14,17,17,18,18,19,19,20,20,21,21,22,22,23,23,24,24,26,26,27,27,28,28,29,29,30,30],"right_children":[2,4,6,8,10,12,14,16,18,20,22,24,26,28,30,-1,-1,32,34,36,38,40,42,44,46,-1,48,50,52,54,56,-1,-1,-1,-1,-1,-1,-1,-1,-1,-1,-1,-1,-1,-1,-1,-1,-1,-1,-1,-1,-1,-1,-1,-1,-1,-1],"split_conditions":[5E-1,1.25E1,5E-1,5E-1,5E-1,5E-1,4.55E1,5E-1,5E-1,5E-1,5E-1,5E-1,5E-1,5E-1,5.35E1,2.2379856E-1,3.0184312E-2,4.215E2,7.5E0,6.97E2,5E-1,2.75E1,2.693E3,5E-1,1.95E1,1.703682E-1,1.005E2,4.02E2,1.296E3,5E-1,4.34E2,1.3269818E-1,3.4599736E-2,1.36609E-2,-9.0511635E-2,-3.73983E-2,2.4916112E-2,-6.393388E-2,3.4586426E-2,-1.2394888E-3,-9.748881E-2,-1.755906E-1,2.2971883E-1,2.0617059E-1,8.304172E-2,1.4633802E-1,-2.3784442E-2,1.391305E-1,-2.156904E-2,1.9612921E-2,1.0366769E-1,3.579517E-2,-7.7720664E-2,-3.737868E-2,-1.8216531E-1,-8.611986E-2,9.033918E-2],"split_indices":[0,1,14,12,16,10,1,14,20,4,10,12,16,20,1,0,0,3,1,3,10,1,5,6,1,0,3,3,3,19,3,0,0,0,0,0,0,0,0,0,0,0,0,0,0,0,0,0,0,0,0,0,0,0,0,0,0],"split_type":[0,0,0,0,0,0,0,0,0,0,0,0,0,0,0,0,0,0,0,0,0,0,0,0,0,0,0,0,0,0,0,0,0,0,0,0,0,0,0,0,0,0,0,0,0,0,0,0,0,0,0,0,0,0,0,0,0],"sum_hessian":[1.182743E3,8.302989E2,3.524441E2,6.0186943E1,7.7011194E2,1.361436E2,2.163005E2,1.4820675E1,4.536627E1,6.2864514E2,1.4146683E2,1.14754486E2,2.1389114E1,1.94857E2,2.144351E1,1.2176399E1,2.6442764E0,1.4675438E1,3.0690828E1,3.3096265E2,2.976825E2,1.0999412E2,3.147272E1,1.1027564E2,4.4788465E0,5.3055944E0,1.608352E1,7.9770195E1,1.150868E2,1.2644515E1,8.798995E0,3.5152247E0,1.1160213E1,1.9941118E1,1.074971E1,2.0842264E2,1.2254001E2,2.6389874E2,3.3783745E1,4.2282288E1,6.771183E1,2.9287024E1,2.1856947E0,1.04374466E2,5.9011755E0,2.0749056E0,2.4039412E0,2.208915E0,1.3874605E1,2.5823893E1,5.3946304E1,9.915744E1,1.59293585E1,8.917004E0,3.7275107E0,2.244329E0,6.5546656E0],"tree_param":{"num_deleted":"0","num_feature":"22","num_nodes":"57","size_leaf_vector":"0"}},{"base_weights":[1.2396117E-2,-1.39748E-1,3.8432613E-1,2.3214476E-1,-1.6859494E-1,8.101081E-1,1.4284208E-1,9.0116835E-1,2.318975E-2,-1.2783112E-1,-3.2520714E-1,9.2661005E-1,2.3649082E-1,3.9447393E-2,2.8964192E-1,1.0671487E0,1.2957704E-1,6.8236285E-1,-3.450438E-2,-1.9202091E-1,3.7696195E-1,-6.312203E-1,-2.5436714E-1,2.088358E-1,9.4958985E-1,7.902381E-1,3.6515284E-2,8.292919E-1,5.078101E-3,5.5166304E-1,-6.844671E-2,-6.220347E-1,4.757871E-2,-2.6929647E-1,-3.6728326E-2,4.6198368E-1,-1.2193986E0,-6.1577737E-2,-7.840866E-1,3.1083852E-1,-3.0022648E-1,9.7725725E-1,2.9851955E-1,-2.7559653E-1,3.1281537E-1,-3.739975E-1,6.846744E-2,1.0558153E0,2.3374785E-1,4.0024783E-2,-8.572725E-1],"categories":[],"categories_nodes":[],"categories_segments":[],"categories_sizes":[],"default_left":[1,1,1,1,1,1,1,1,1,1,1,1,1,1,1,0,0,0,1,1,1,1,1,0,1,0,1,0,1,1,1,0,0,0,0,0,0,0,0,0,0,0,0,0,0,0,0,0,0,0,0],"id":8,"left_children":[1,3,5,7,9,11,13,15,17,19,21,23,25,27,29,-1,-1,-1,31,33,35,37,39,-1,41,-1,43,-1,45,47,49,-1,-1,-1,-1,-1,-1,-1,-1,-1,-1,-1,-1,-1,-1,-1,-1,-1,-1,-1,-1],"loss_changes":[6.516713E1,8.807728E0,3.4258972E1,8.263068E0,4.804613E0,7.8520813E0,3.244989E0,1.6645031E0,1.7798262E0,1.9642624E1,3.2239857E0,1.4518661E0,2.377603E0,3.4444587E0,8.341814E0,0E0,0E0,0E0,2.1233964E0,6.4282513E0,9.857079E0,2.4485989E0,3.422863E0,0E0,1.44944E0,0E0,1.5534577E0,0E0,2.97517E0,7.9623003E0,3.3102698E0,0E0,0E0,0E0,0E0,0E0,0E0,0E0,0E0,0E0,0E0,0E0,0E0,0E0,0E0,0E0,0E0,0E0,0E0,0E0,0E0],"parents":[2147483647,0,0,1,1,2,2,3,3,4,4,5,5,6,6,7,7,8,8,9,9,10,10,11,11,12,12,13,13,14,14,18,18,19,19,20,20,21,21,22,22,24,24,26,26,28,28,29,29,30,30],"right_children":[2,4,6,8,10,12,14,16,18,20,22,24,26,28,30,-1,-1,-1,32,34,36,38,40,-1,42,-1,44,-1,46,48,50,-1,-1,-1,-1,-1,-1,-1,-1,-1,-1,-1,-1,-1,-1,-1,-1,-1,-1,-1,-1],"split_conditions":[5E-1,1.25E1,5E-1,5E-1,1.129E3,5E-1,8.22E2,5E-1,1.245E2,8.98E2,1.2315E3,2.5E0,5E-1,5E-1,1.2335E3,2.1342973E-1,2.5915409E-2,1.3647257E-1,2.11E2,5E-1,2.945E3,5E-1,1.2605E3,4.176716E-2,5E-1,1.5804762E-1,2.93E2,1.6585837E-1,1.05E1,5E-1,4.45E1,-1.2440695E-1,9.515743E-3,-5.3859293E-2,-7.3456652E-3,9.2396736E-2,-2.4387972E-1,-1.2315548E-2,-1.5681732E-1,6.2167704E-2,-6.00453E-2,1.9545145E-1,5.9703913E-2,-5.5119306E-2,6.256308E-2,-7.47995E-2,1.3693488E-2,2.1116307E-1,4.6749573E-2,8.004957E-3,-1.714545E-1],"split_indices":[0,1,14,12,3,10,3,14,3,3,3,1,16,1,3,0,0,0,3,15,5,11,3,0,12,0,3,0,1,4,1,0,0,0,0,0,0,0,0,0,0,0,0,0,0,0,0,0,0,0,0],"split_type":[0,0,0,0,0,0,0,0,0,0,0,0,0,0,0,0,0,0,0,0,0,0,0,0,0,0,0,0,0,0,0,0,0,0,0,0,0,0,0,0,0,0,0,0,0,0,0,0,0,0,0],"sum_hessian":[1.1496787E3,8.1635815E2,3.3332056E2,5.8257607E1,7.581006E2,1.1977677E2,2.1354378E2,1.3076635E1,4.5180973E1,6.029721E2,1.5512846E2,9.904526E1,2.0731512E1,1.2603968E2,8.75041E1,1.0446413E1,2.6302223E0,2.7648191E0,4.2416153E1,5.3549756E2,6.747458E1,2.7673695E1,1.27454765E2,3.3855436E0,9.565971E1,4.7172947E0,1.6014217E1,4.2913284E0,1.2174835E2,5.0217964E1,3.7286137E1,4.393128E0,3.8023026E1,3.5707724E2,1.784203E2,6.473729E1,2.7372894E0,6.1519227E0,2.152177E1,9.131615E0,1.1832315E2,9.127976E1,4.379955E0,7.520979E0,8.493239E0,1.674017E1,1.0500818E2,1.8522997E1,3.1694965E1,3.361324E1,3.6728985E0],"tree_param":{"num_deleted":"0","num_feature":"22","num_nodes":"51","size_leaf_vector":"0"}},{"base_weights":[1.1900549E-2,-1.1400506E-1,3.3126822E-1,1.9864161E-1,-1.3790625E-1,7.496044E-1,1.18313916E-1,8.413553E-1,1.9228544E-2,-3.8683382E-1,-1.1646161E-1,8.750328E-1,2.0307069E-1,7.3593095E-2,3.861873E-1,1.0226822E0,1.11241415E-1,-4.786728E-2,5.325146E-1,-5.7925177E-1,-4.5951165E-2,6.097781E-1,-1.2935714E-1,9.091999E-1,2.4397542E-1,7.4781E-1,3.336893E-2,2.1251146E-1,-3.2540232E-2,-6.8372965E-2,5.281661E-1,3.1047203E-2,-8.2001334E-1,7.3740345E-1,1.2862772E-1,-3.8620585E-1,-1.1879015E0,1.4511954E0,-3.4988996E-1,9.9899316E-1,-2.2757784E-1,-1.1654235E-1,-6.976192E-1,9.4258505E-1,2.5278726E-1,-5.2296066E-1,8.19601E-1,7.661427E-1,-1.13611065E-1,-5.8556635E-2,3.6163697E-1,1.0832367E0,-7.030114E-2,4.0357533E-1,-7.303864E-1,6.9440746E-1,-1.9576445E-2],"categories":[],"categories_nodes":[],"categories_segments":[],"categories_sizes":[],"default_left":[1,1,1,1,1,1,1,1,1,1,1,1,1,1,1,0,0,1,1,1,1,1,1,1,1,0,1,1,1,1,1,0,0,0,0,0,0,0,0,0,0,0,0,0,0,0,0,0,0,0,0,0,0,0,0,0,0],"id":9,"left_children":[1,3,5,7,9,11,13,15,17,19,21,23,25,27,29,-1,-1,31,33,35,37,39,41,43,45,-1,47,49,51,53,55,-1,-1,-1,-1,-1,-1,-1,-1,-1,-1,-1,-1,-1,-1,-1,-1,-1,-1,-1,-1,-1,-1,-1,-1,-1,-1],"loss_changes":[4.5127052E1,6.042964E0,2.8180813E1,6.6235366E0,3.950202E0,7.147434E0,2.504883E0,1.5467253E0,1.6110193E0,3.838807E0,6.5455904E0,1.6455765E0,1.9392896E0,2.6969557E0,1.9734225E0,0E0,0E0,2.5623348E0,3.5240686E-1,3.9570637E0,1.0677449E1,4.2106504E0,4.86532E0,1.5541992E0,2.995816E0,0E0,1.9446762E0,3.220815E0,4.470509E0,2.8035758E0,2.106853E0,0E0,0E0,0E0,0E0,0E0,0E0,0E0,0E0,0E0,0E0,0E0,0E0,0E0,0E0,0E0,0E0,0E0,0E0,0E0,0E0,0E0,0E0,0E0,0E0,0E0,0E0],"parents":[2147483647,0,0,1,1,2,2,3,3,4,4,5,5,6,6,7,7,8,8,9,9,10,10,11,11,12,12,13,13,14,14,17,17,18,18,19,19,20,20,21,21,22,22,23,23,24,24,26,26,27,27,28,28,29,29,30,30],"right_children":[2,4,6,8,10,12,14,16,18,20,22,24,26,28,30,-1,-1,32,34,36,38,40,42,44,46,-1,48,50,52,54,56,-1,-1,-1,-1,-1,-1,-1,-1,-1,-1,-1,-1,-1,-1,-1,-1,-1,-1,-1,-1,-1,-1,-1,-1,-1,-1],"split_conditions":[5E-1,1.25E1,5E-1,5E-1,6.395E2,5E-1,5E-1,5E-1,1.15E1,7.88E2,6.595E2,5E-1,5E-1,2.05E1,1.25E1,2.0453644E-1,2.2248283E-2,1.05E1,1.007E3,5E-1,9.4E2,1.228E3,5E-1,5E-1,2.85E1,1.49562E-1,7.15E1,9.5E0,3.35E1,4.5E0,3.75E1,6.2094405E-3,-1.6400267E-1,1.474807E-1,2.5725543E-2,-7.7241175E-2,-2.375803E-1,2.9023907E-1,-6.997799E-2,1.9979863E-1,-4.5515567E-2,-2.3308469E-2,-1.3952385E-1,1.8851702E-1,5.0557453E-2,-1.0459214E-1,1.6392021E-1,1.5322855E-1,-2.2722213E-2,-1.1711327E-2,7.23274E-2,2.1664734E-1,-1.4060228E-2,8.071507E-2,-1.4607728E-1,1.3888149E-1,-3.915289E-3],"split_indices":[0,1,14,12,5,10,18,14,1,3,5,6,20,1,1,0,0,1,3,12,3,3,17,12,1,0,3,1,3,1,1,0,0,0,0,0,0,0,0,0,0,0,0,0,0,0,0,0,0,0,0,0,0,0,0,0,0],"split_type":[0,0,0,0,0,0,0,0,0,0,0,0,0,0,0,0,0,0,0,0,0,0,0,0,0,0,0,0,0,0,0,0,0,0,0,0,0,0,0,0,0,0,0,0,0,0,0,0,0,0,0,0,0,0,0,0,0],"sum_hessian":[1.1203401E3,8.0401355E2,3.1632648E2,5.65808E1,7.4743274E2,1.05856865E2,2.1046962E2,1.1542493E1,4.5038307E1,5.7931393E1,6.8950134E2,8.5608765E1,2.0248102E1,1.8145146E2,2.901816E1,8.925173E0,2.6173198E0,4.063351E1,4.404796E0,3.658244E1,2.1348953E1,1.122203E1,6.782793E2,8.079363E1,4.815138E0,4.000372E0,1.6247728E1,7.815359E1,1.03297874E2,7.0298333E0,2.1988325E1,3.773657E1,2.8969429E0,2.3744745E0,2.0303216E0,2.9014435E1,7.568004E0,2.9657223E0,1.8383232E1,7.5292797E0,3.6927505E0,6.644994E2,1.377994E1,7.6468475E1,4.325152E0,2.1037257E0,2.7114122E0,2.0107083E0,1.42370205E1,2.7952024E1,5.020156E1,2.4751208E0,1.00822754E2,4.3319645E0,2.6978686E0,1.6663229E1,5.325098E0],"tree_param":{"num_deleted":"0","num_feature":"22","num_nodes":"57","size_leaf_vector":"0"}},{"base_weights":[1.16670625E-2,-9.218528E-2,2.8349665E-1,2.3962982E-1,-1.0797186E-1,6.909259E-1,9.741846E-2,1.2433445E-1,8.9674366E-1,-1.2885085E-1,1.4451584E-1,8.242612E-1,1.7908546E-1,-1.6873856E-1,1.4231977E-1,3.3698124E-1,2.0082109E-2,-1.5253644E-1,9.3909666E-2,-1.7750481E-1,3.9431036E-1,7.0479825E-2,8.534715E-1,7.060993E-1,1.3762039E-2,5.9659213E-2,-4.6370953E-1,5.383082E-1,1.0454432E-1,7.8238785E-2,6.414825E-1,-7.967039E-1,1.6999383E-1,-6.959303E-2,-2.7733764E-1,3.1944382E-1,-2.3289311E-1,2.2136286E-1,-5.684323E-1,4.7488973E-1,-5.220942E-1,9.000007E-1,3.085285E-1,2.0861652E-1,-3.6593765E-1,-2.6061895E-1,4.6693733E-1,-6.795075E-1,3.5350645E-1,2.4177957E-1,1.0037405E0,2.768581E-1,-1.6677525E-2],"categories":[],"categories_nodes":[],"categories_segments":[],"categories_sizes":[],"default_left":[1,1,1,1,1,1,1,1,0,1,1,1,1,1,1,1,1,1,1,1,1,0,1,0,1,1,1,1,1,0,0,0,0,0,0,0,0,0,0,0,0,0,0,0,0,0,0,0,0,0,0,0,0],"id":10,"left_children":[1,3,5,7,9,11,13,15,-1,17,19,21,23,25,27,29,31,33,35,37,39,-1,41,-1,43,45,47,49,51,-1,-1,-1,-1,-1,-1,-1,-1,-1,-1,-1,-1,-1,-1,-1,-1,-1,-1,-1,-1,-1,-1,-1,-1],"loss_changes":[3.106936E1,4.197696E0,2.29974E1,2.6523514E0,4.030054E0,6.350708E0,2.5338044E0,7.069876E-1,0E0,3.7253466E0,4.782892E0,1.5969963E0,1.8161246E0,2.1008322E0,2.6398335E0,7.7931786E-1,2.9110081E0,6.565584E0,5.102333E0,4.2242823E0,2.7073278E0,0E0,1.55719E0,0E0,1.332014E0,2.4995816E0,2.6285846E0,1.8903847E0,3.4675078E0,0E0,0E0,0E0,0E0,0E0,0E0,0E0,0E0,0E0,0E0,0E0,0E0,0E0,0E0,0E0,0E0,0E0,0E0,0E0,0E0,0E0,0E0,0E0,0E0],"parents":[2147483647,0,0,1,1,2,2,3,3,4,4,5,5,6,6,7,7,9,9,10,10,11,11,12,12,13,13,14,14,15,15,16,16,17,17,18,18,19,19,20,20,22,22,24,24,25,25,26,26,27,27,28,28],"right_children":[2,4,6,8,10,12,14,16,-1,18,20,22,24,26,28,30,32,34,36,38,40,-1,42,-1,44,46,48,50,52,-1,-1,-1,-1,-1,-1,-1,-1,-1,-1,-1,-1,-1,-1,-1,-1,-1,-1,-1,-1,-1,-1,-1,-1],"split_conditions":[5E-1,7.5E0,5E-1,5E-1,5E-1,5E-1,1.71E2,4.1E2,1.7934874E-1,5E-1,1.52E2,2.5E0,5E-1,2.45E1,2.635E2,2.11E2,5.16E2,1.1725E3,3.75E1,5E-1,3.03E2,1.4095965E-2,5E-1,1.4121985E-1,5E-1,5E-1,4.95E1,2.245E2,5E-1,1.5647758E-2,1.282965E-1,-1.5934078E-1,3.399877E-2,-1.3918606E-2,-5.5467527E-2,6.3888766E-2,-4.6578623E-2,4.427257E-2,-1.1368646E-1,9.4977945E-2,-1.0441884E-1,1.8000014E-1,6.1705705E-2,4.1723307E-2,-7.318753E-2,-5.2123792E-2,9.338747E-2,-1.359015E-1,7.070129E-2,4.8355915E-2,2.0074812E-1,5.537162E-2,-3.335505E-3],"split_indices":[0,1,14,16,7,10,3,3,0,8,3,1,16,1,3,3,3,5,1,4,3,0,17,0,4,4,1,3,4,0,0,0,0,0,0,0,0,0,0,0,0,0,0,0,0,0,0,0,0,0,0,0,0],"split_type":[0,0,0,0,0,0,0,0,0,0,0,0,0,0,0,0,0,0,0,0,0,0,0,0,0,0,0,0,0,0,0,0,0,0,0,0,0,0,0,0,0,0,0,0,0,0,0,0,0,0,0,0,0],"sum_hessian":[1.0986483E3,7.9541956E2,3.0322876E2,3.548057E1,7.59939E2,9.4218544E1,2.0901021E2,3.119619E1,4.284384E0,7.0234924E2,5.758975E1,7.426263E1,1.995592E1,2.9772535E1,1.7923767E2,9.528416E0,2.1667772E1,6.351324E2,6.721687E1,2.5284206E1,3.2305542E1,2.8977654E0,7.136486E1,3.984193E0,1.5971726E1,1.7229431E1,1.2543104E1,1.4455446E1,1.6478223E2,5.830788E0,3.697628E0,2.6910803E0,1.8976692E1,3.824873E2,2.526451E2,3.9783722E1,2.743315E1,1.27297E1,1.2554506E1,3.0137356E1,2.1681843E0,6.515053E1,6.214333E0,1.0852837E1,5.11889E0,9.846426E0,7.3830047E0,1.0056141E1,2.4869637E0,9.7580385E0,4.6974077E0,6.752015E1,9.726207E1],"tree_param":{"num_deleted":"0","num_feature":"22","num_nodes":"53","size_leaf_vector":"0"}},{"base_weights":[1.0897148E-2,-7.462708E-2,2.4133682E-1,-4.116269E-2,-2.0451795E-1,6.320817E-1,8.027516E-2,-1.0800216E-1,3.2756034E-1,-1.0176189E0,-1.7448744E-1,7.72109E-1,1.5292737E-1,-7.5363875E-3,2.09669E-1,-2.8758008E-2,-2.4377811E-1,5.7263935E-1,-1.5738119E-1,5.2688533E-1,-1.9502974E-1,8.149381E-1,9.917319E-2,6.5351456E-1,9.012541E-3,7.278203E-1,-3.768956E-2,4.5355636E-1,-1.0085035E-1,-5.133691E-2,4.670028E-1,-4.538623E-1,-6.7116104E-2,9.3748677E-1,1.040924E-1,-3.2276088E-1,6.655104E-1,-2.4651237E-1,9.093547E-2,8.706831E-1,2.5243494E-1,-5.7505983E-1,7.3136973E-1,-1.698012E-1,3.9238253E-1,-3.2380706E-1,1.1557444E-2,9.7360945E-1,1.764748E-1,-1.1738969E-2,-7.310853E-1],"categories":[],"categories_nodes":[],"categories_segments":[],"categories_sizes":[],"default_left":[1,1,1,1,1,1,1,1,1,0,1,1,1,1,1,1,1,1,1,0,1,1,1,0,1,0,1,1,1,0,0,0,0,0,0,0,0,0,0,0,0,0,0,0,0,0,0,0,0,0,0],"id":11,"left_children":[1,3,5,7,9,11,13,15,17,-1,19,21,23,25,27,29,31,33,35,-1,37,39,41,-1,43,-1,45,47,49,-1,-1,-1,-1,-1,-1,-1,-1,-1,-1,-1,-1,-1,-1,-1,-1,-1,-1,-1,-1,-1,-1],"loss_changes":[2.1303982E1,3.4188585E0,1.8362701E1,1.5517588E1,3.7603579E0,5.602009E0,2.3686748E0,5.722971E0,1.1576772E1,0E0,2.3609672E0,1.8135109E0,1.47292E0,2.8006835E0,6.4267364E0,3.8009462E0,7.2488766E0,1.0914572E1,4.7371917E0,0E0,2.27499E0,1.7135162E0,2.5822742E0,0E0,1.2290906E0,0E0,1.7100333E0,6.654662E0,2.119009E0,0E0,0E0,0E0,0E0,0E0,0E0,0E0,0E0,0E0,0E0,0E0,0E0,0E0,0E0,0E0,0E0,0E0,0E0,0E0,0E0,0E0,0E0],"parents":[2147483647,0,0,1,1,2,2,3,3,4,4,5,5,6,6,7,7,8,8,10,10,11,11,12,12,13,13,14,14,15,15,16,16,17,17,18,18,20,20,21,21,22,22,24,24,26,26,27,27,28,28],"right_children":[2,4,6,8,10,12,14,16,18,-1,20,22,24,26,28,30,32,34,36,-1,38,40,42,-1,44,-1,46,48,50,-1,-1,-1,-1,-1,-1,-1,-1,-1,-1,-1,-1,-1,-1,-1,-1,-1,-1,-1,-1,-1,-1],"split_conditions":[5E-1,1.1275E3,5E-1,8.255E2,1.1455E3,5E-1,8.22E2,3.155E2,1.0555E3,-2.0352378E-1,1.1625E3,5E-1,5E-1,5E-1,1.2335E3,2.935E2,5.025E2,5E-1,1.082E3,1.0537707E-1,5E-1,5E-1,2.85E1,1.3070291E-1,3.85E1,1.4556406E-1,1.05E1,5E-1,4.45E1,-1.02673825E-2,9.340056E-2,-9.0772465E-2,-1.3423221E-2,1.8749736E-1,2.081848E-2,-6.455218E-2,1.3310209E-1,-4.9302474E-2,1.8187094E-2,1.7413662E-1,5.048699E-2,-1.1501197E-1,1.4627396E-1,-3.396024E-2,7.847651E-2,-6.4761415E-2,2.3114888E-3,1.9472189E-1,3.529496E-2,-2.347794E-3,-1.4621706E-1],"split_indices":[0,3,14,3,3,10,3,3,5,0,3,6,16,1,3,3,3,4,3,0,18,17,1,0,1,0,1,4,1,0,0,0,0,0,0,0,0,0,0,0,0,0,0,0,0,0,0,0,0,0,0],"split_type":[0,0,0,0,0,0,0,0,0,0,0,0,0,0,0,0,0,0,0,0,0,0,0,0,0,0,0,0,0,0,0,0,0,0,0,0,0,0,0,0,0,0,0,0,0,0,0,0,0,0,0],"sum_hessian":[1.079058E3,7.8747473E2,2.9158328E2,6.272025E2,1.602722E2,8.425392E1,2.0732935E2,5.315534E2,9.564911E1,4.537214E0,1.5573499E2,6.472685E1,1.9527073E1,1.24071495E2,8.325786E1,3.3641833E2,1.9513509E2,6.3418118E1,3.223099E1,3.7300959E0,1.5200488E2,6.0655407E1,4.0714464E0,3.569633E0,1.595744E1,3.9757578E0,1.2009573E2,4.6374146E1,3.688371E1,3.2262134E2,1.3797001E1,8.841911E1,1.0671597E2,3.509194E1,2.8326176E1,2.7343447E1,4.887545E0,1.2893123E2,2.3073664E1,5.468788E1,5.9675245E0,2.0139556E0,2.0574908E0,1.1261749E1,4.6956906E0,1.6816912E1,1.03278824E2,1.5245723E1,3.1128422E1,3.320706E1,3.6766496E0],"tree_param":{"num_deleted":"0","num_feature":"22","num_nodes":"51","size_leaf_vector":"0"}},{"base_weights":[1.0272749E-2,-6.0414765E-2,2.0606722E-1,6.464531E-2,-9.3528554E-2,5.7619834E-1,6.689345E-2,9.291028E-2,-7.568557E-1,-8.5880324E-2,-7.1150285E-1,7.197589E-1,1.348411E-1,1.8067907E-1,-1.1116937E-2,1.3377967E-1,-5.067258E-1,-5.6817695E-2,-1.1627995E0,-9.475632E-2,6.5818435E-1,2.933317E-1,-1.2762628E0,-4.3057222E-2,7.557848E-1,6.149261E-1,-2.3099796E-3,2.2029614E-1,-5.777884E-1,1.570397E-1,-1.0464321E-1,4.9527112E-1,5.9350718E-2,-8.1248087E-1,3.887999E-1,-8.639175E-2,-6.775962E-1,-8.635546E-2,1.5297024E0,8.0436254E-1,1.2736987E-1,5.613542E-1,-1.4052497E-1,-3.488582E-1,2.7733776E-1,2.7592114E-1,-4.819199E-1,-3.29321E-1,8.121376E-2],"categories":[],"categories_nodes":[],"categories_segments":[],"categories_sizes":[],"default_left":[1,1,1,1,1,1,1,1,1,1,1,1,1,1,1,1,1,0,0,1,1,0,0,0,1,0,1,1,0,1,1,0,0,0,0,0,0,0,0,0,0,0,0,0,0,0,0,0,0],"id":12,"left_children":[1,3,5,7,9,11,13,15,17,19,21,23,25,27,29,31,33,-1,-1,35,37,-1,-1,-1,39,-1,41,43,-1,45,47,-1,-1,-1,-1,-1,-1,-1,-1,-1,-1,-1,-1,-1,-1,-1,-1,-1,-1],"loss_changes":[1.4701358E1,3.2385354E0,1.4475347E1,3.8784235E0,2.8577504E0,4.7730064E0,1.8296093E0,3.975118E0,1.515207E0,4.0985966E0,4.5808496E0,1.6200275E0,1.3245728E0,2.6453922E0,1.9522909E0,4.0079384E0,3.1586967E0,0E0,0E0,2.8900838E0,4.8886204E0,0E0,0E0,0E0,1.5830956E0,0E0,1.3741846E0,2.705876E0,0E0,3.5050788E0,3.354766E0,0E0,0E0,0E0,0E0,0E0,0E0,0E0,0E0,0E0,0E0,0E0,0E0,0E0,0E0,0E0,0E0,0E0,0E0],"parents":[2147483647,0,0,1,1,2,2,3,3,4,4,5,5,6,6,7,7,8,8,9,9,10,10,11,11,12,12,13,13,14,14,15,15,16,16,19,19,20,20,24,24,26,26,27,27,29,29,30,30],"right_children":[2,4,6,8,10,12,14,16,18,20,22,24,26,28,30,32,34,-1,-1,36,38,-1,-1,-1,40,-1,42,44,-1,46,48,-1,-1,-1,-1,-1,-1,-1,-1,-1,-1,-1,-1,-1,-1,-1,-1,-1,-1],"split_conditions":[5E-1,1.95E1,5E-1,5E-1,1.83355E4,5E-1,5E-1,3.296E3,9.305E2,1.4104E4,1.32E2,2.5E0,5E-1,1.462E3,1.75E1,1.775E2,5E-1,-1.1363539E-2,-2.325599E-1,1.11335E4,3.85E1,5.8666345E-2,-2.5525257E-1,-8.611444E-3,5E-1,1.2298522E-1,1.045E2,8.8E1,-1.15557685E-1,1.2985E3,5.945E2,9.9054225E-2,1.1870144E-2,-1.6249618E-1,7.775998E-2,-1.7278349E-2,-1.3551925E-1,-1.7271092E-2,3.0594048E-1,1.608725E-1,2.5473973E-2,1.1227085E-1,-2.8104994E-2,-6.977164E-2,5.5467553E-2,5.5184226E-2,-9.638398E-2,-6.58642E-2,1.6242752E-2],"split_indices":[0,1,14,17,5,10,20,5,3,5,3,1,20,3,1,3,7,0,0,5,1,0,0,0,12,0,3,3,0,3,3,0,0,0,0,0,0,0,0,0,0,0,0,0,0,0,0,0,0],"split_type":[0,0,0,0,0,0,0,0,0,0,0,0,0,0,0,0,0,0,0,0,0,0,0,0,0,0,0,0,0,0,0,0,0,0,0,0,0,0,0,0,0,0,0,0,0,0,0,0,0],"sum_hessian":[1.0603201E3,7.795656E2,2.807545E2,1.6300317E2,6.1656244E2,7.58615E1,2.0489296E2,1.5843875E2,4.564419E0,6.1015E2,6.4124284E0,5.67663E1,1.9095205E1,8.28021E1,1.22090866E2,1.4905641E2,9.38234E0,2.0937583E0,2.4706604E0,6.0381964E2,6.330358E0,2.4802017E0,3.9322267E0,2.5512235E0,5.4215076E1,3.4689372E0,1.5626269E1,7.936611E1,3.4359841E0,4.339294E1,7.869793E1,2.4484453E1,1.2457196E2,7.063438E0,2.3189027E0,5.9640857E2,7.411081E0,3.8997269E0,2.4306314E0,5.0064972E1,4.1501074E0,2.4742796E0,1.3151989E1,6.7636256E0,7.2602486E1,3.7064995E1,6.3279448E0,3.5278606E1,4.341932E1],"tree_param":{"num_deleted":"0","num_feature":"22","num_nodes":"49","size_leaf_vector":"0"}},{"base_weights":[8.630747E-3,-4.9173016E-2,1.7293596E-1,3.7157595E-1,-5.7557333E-2,5.2062416E-1,5.317798E-2,8.54853E-1,1.864568E-1,9.881852E-4,-1.21205755E-1,6.659897E-1,1.2038496E-1,8.019958E-2,-2.1109974E-1,-2.4385314E-2,7.027184E-1,-3.3998873E-2,3.374455E-1,8.433467E-3,-1.76196E-1,7.178343E-1,-2.0830678E-2,6.699794E-1,1.8669985E-2,1.9918326E-1,4.4216396E-4,-5.096199E-1,1.5594955E-1,1.1809062E-1,-3.4264255E-1,-1.6376558E-1,9.638963E-2,9.050952E-1,9.0321824E-2,-8.3524965E-2,8.938117E-1,-2.4193032E-1,-2.4321007E-2,7.871494E-1,1.675341E-1,-4.3559048E-1,2.7821845E-1,2.0185493E-2,3.232048E-1,6.109187E-2,-3.4102374E-1,-8.1928724E-1,6.9004297E-3,-4.1020375E-1,3.904157E-1],"categories":[],"categories_nodes":[],"categories_segments":[],"categories_sizes":[],"default_left":[1,1,1,1,1,1,1,0,1,1,1,1,1,1,1,1,0,1,1,1,1,1,0,0,1,1,1,1,1,0,0,0,0,0,0,0,0,0,0,0,0,0,0,0,0,0,0,0,0,0,0],"id":13,"left_children":[1,3,5,7,9,11,13,-1,15,17,19,21,23,25,27,29,-1,31,33,35,37,39,-1,-1,41,43,45,47,49,-1,-1,-1,-1,-1,-1,-1,-1,-1,-1,-1,-1,-1,-1,-1,-1,-1,-1,-1,-1,-1,-1],"loss_changes":[9.970328E0,2.761339E0,1.1347747E1,1.2102168E0,2.8410323E0,3.9853916E0,1.4760044E0,0E0,1.3612165E0,4.69783E0,2.605554E0,1.8323689E0,1.0964879E0,1.7658676E0,2.1863494E0,4.8183578E-1,0E0,6.132659E0,5.1913404E0,9.0103445E0,2.5551858E0,1.6794205E0,0E0,0E0,2.2161722E0,1.651293E0,2.3488526E0,1.7392435E0,1.4066049E0,0E0,0E0,0E0,0E0,0E0,0E0,0E0,0E0,0E0,0E0,0E0,0E0,0E0,0E0,0E0,0E0,0E0,0E0,0E0,0E0,0E0,0E0],"parents":[2147483647,0,0,1,1,2,2,3,3,4,4,5,5,6,6,8,8,9,9,10,10,11,11,12,12,13,13,14,14,15,15,17,17,18,18,19,19,20,20,21,21,24,24,25,25,26,26,27,27,28,28],"right_children":[2,4,6,8,10,12,14,-1,16,18,20,22,24,26,28,30,-1,32,34,36,38,40,-1,-1,42,44,46,48,50,-1,-1,-1,-1,-1,-1,-1,-1,-1,-1,-1,-1,-1,-1,-1,-1,-1,-1,-1,-1,-1,-1],"split_conditions":[5E-1,1.5E0,5E-1,5E-1,5E-1,5E-1,4.65E1,1.709706E-1,5E-1,5E-1,5E-1,5E-1,7.15E1,5E-1,5.35E1,9.69E2,1.4054368E-1,5.12E2,4.0455E3,5E-1,1.7875E3,5E-1,-4.1661356E-3,1.3399588E-1,2.6E2,4.76E2,1.296E3,8.96E2,4.34E2,2.3618124E-2,-6.852851E-2,-3.2753117E-2,1.9277927E-2,1.8101905E-1,1.8064365E-2,-1.6704993E-2,1.7876235E-1,-4.8386063E-2,-4.8642014E-3,1.5742989E-1,3.350682E-2,-8.71181E-2,5.564369E-2,4.0370985E-3,6.464096E-2,1.2218374E-2,-6.820475E-2,-1.6385745E-1,1.380086E-3,-8.204075E-2,7.808314E-2],"split_indices":[0,1,14,12,4,10,1,0,18,8,20,6,3,20,1,3,0,3,5,10,5,17,0,0,3,3,3,3,3,0,0,0,0,0,0,0,0,0,0,0,0,0,0,0,0,0,0,0,0,0,0],"split_type":[0,0,0,0,0,0,0,0,0,0,0,0,0,0,0,0,0,0,0,0,0,0,0,0,0,0,0,0,0,0,0,0,0,0,0,0,0,0,0,0,0,0,0,0,0,0,0,0,0,0,0],"sum_hessian":[1.0478936E3,7.7569806E2,2.721955E2,1.430909E1,7.61389E2,6.8877914E1,2.0331758E2,2.9610472E0,1.13480425E1,3.9710535E2,3.6428363E2,5.003968E1,1.883823E1,1.8508928E2,1.8228289E1,8.733877E0,2.614165E0,3.605155E2,3.658984E1,1.087508E2,2.5553284E2,4.648557E1,3.5541131E0,2.0694706E0,1.6768759E1,7.367786E1,1.1141143E2,9.838358E0,8.389932E0,6.467488E0,2.2663894E0,1.805603E2,1.7995522E2,1.02902775E1,2.6299562E1,9.93388E1,9.412007E0,1.7792892E2,7.760391E1,4.090307E1,5.5825005E0,5.8506746E0,1.0918084E1,3.0631212E1,4.3046646E1,9.530488E1,1.6106552E1,5.7843328E0,4.054025E0,2.2375388E0,6.1523924E0],"tree_param":{"num_deleted":"0","num_feature":"22","num_nodes":"51","size_leaf_vector":"0"}},{"base_weights":[8.068778E-3,-3.904544E-2,1.4454117E-1,-5.5791408E-2,1.6603613E-1,4.648232E-1,4.2358384E-2,-4.1043464E-2,-3.2962054E-1,-1.8614312E-1,3.241254E-1,6.113559E-1,1.0260843E-1,-2.481517E-2,1.453396E-1,-5.9665937E-2,2.2024457E-1,-1.0913441E0,-1.7797987E-1,3.0525146E-2,-6.3782406E-1,2.463696E-1,1.0961665E0,-1.4092164E-1,6.545299E-1,5.7123035E-1,-1.5924988E-2,6.154858E-1,-4.9197577E-2,4.3567672E-1,-2.5313128E-2,-4.7929175E-2,-6.316987E-1,4.77969E-1,-5.5046972E-2,8.588969E-1,-2.787262E-1,3.578216E-1,-3.347363E-1,-9.881237E-2,-1.0841807E0,4.657089E-1,-3.2242596E-2,7.2505724E-1,1.5000725E-1,-2.798293E-1,2.1288142E-1,-3.2845685E-1,-5.849203E-4,1.0282638E0,3.9427575E-2,1.748652E-1,-1.9666918E-1],"categories":[],"categories_nodes":[],"categories_segments":[],"categories_sizes":[],"default_left":[1,1,1,1,1,1,1,1,1,1,1,1,1,1,1,1,1,0,1,1,1,1,0,0,1,0,1,0,1,1,1,0,0,0,0,0,0,0,0,0,0,0,0,0,0,0,0,0,0,0,0,0,0],"id":14,"left_children":[1,3,5,7,9,11,13,15,17,19,21,23,25,27,29,31,33,-1,35,37,39,41,-1,-1,43,-1,45,-1,47,49,51,-1,-1,-1,-1,-1,-1,-1,-1,-1,-1,-1,-1,-1,-1,-1,-1,-1,-1,-1,-1,-1,-1],"loss_changes":[6.6608334E0,2.6544032E0,8.680576E0,2.8651302E0,3.3115602E0,3.3447456E0,1.4054029E0,3.3098955E0,3.9971988E0,1.8521986E0,2.1713014E0,1.57024E0,1.1029825E0,1.9583266E0,3.981935E0,4.2211943E0,3.2395658E0,0E0,3.5254683E0,1.7468845E0,1.3644979E0,2.3517241E0,0E0,0E0,1.4288979E0,0E0,1.0673736E0,0E0,1.6274176E0,6.9388785E0,1.7982255E0,0E0,0E0,0E0,0E0,0E0,0E0,0E0,0E0,0E0,0E0,0E0,0E0,0E0,0E0,0E0,0E0,0E0,0E0,0E0,0E0,0E0,0E0],"parents":[2147483647,0,0,1,1,2,2,3,3,4,4,5,5,6,6,7,7,8,8,9,9,10,10,11,11,12,12,13,13,14,14,15,15,16,16,18,18,19,19,20,20,21,21,24,24,26,26,28,28,29,29,30,30],"right_children":[2,4,6,8,10,12,14,16,18,20,22,24,26,28,30,32,34,-1,36,38,40,42,-1,-1,44,-1,46,-1,48,50,52,-1,-1,-1,-1,-1,-1,-1,-1,-1,-1,-1,-1,-1,-1,-1,-1,-1,-1,-1,-1,-1,-1],"split_conditions":[5E-1,5E-1,5E-1,7.2985E3,1.14E2,5E-1,8.22E2,5E-1,7.661E3,8.3665E3,5.45E1,2.5E0,5E-1,5E-1,5E-1,5E-1,5E-1,-2.1826883E-1,7.7455E3,5E-1,5.75E1,5E-1,2.192333E-1,-2.8184328E-2,5E-1,1.1424607E-1,2.93E2,1.2309716E-1,1.05E1,1.1565E3,2.15E1,-9.585835E-3,-1.2633975E-1,9.55938E-2,-1.1009394E-2,1.7177938E-1,-5.574524E-2,7.1564324E-2,-6.694726E-2,-1.9762475E-2,-2.1683614E-1,9.314179E-2,-6.4485194E-3,1.4501145E-1,3.000145E-2,-5.596586E-2,4.2576283E-2,-6.5691374E-2,-1.1698406E-4,2.0565276E-1,7.885515E-3,3.497304E-2,-3.9333835E-2],"split_indices":[0,7,14,5,3,10,3,8,5,5,1,1,16,1,4,2,4,0,5,4,3,4,0,0,17,0,3,0,1,3,1,0,0,0,0,0,0,0,0,0,0,0,0,0,0,0,0,0,0,0,0,0,0],"split_type":[0,0,0,0,0,0,0,0,0,0,0,0,0,0,0,0,0,0,0,0,0,0,0,0,0,0,0,0,0,0,0,0,0,0,0,0,0,0,0,0,0,0,0,0,0,0,0,0,0,0,0,0,0],"sum_hessian":[1.0340555E3,7.692144E2,2.6484113E2,7.1181866E2,5.7395725E1,6.319951E1,2.0164162E2,6.765318E2,3.5286892E1,1.7727127E1,3.96686E1,4.450666E1,1.8692846E1,1.2249709E2,7.914453E1,6.322424E2,4.4289417E1,4.8296447E0,3.0457249E1,1.2610415E1,5.116711E0,3.7237366E1,2.431232E0,2.2927651E0,4.2213898E1,3.0026634E0,1.5690183E1,3.604228E0,1.1889287E2,2.872342E1,5.042111E1,6.205931E2,1.1649319E1,2.2494307E1,2.179511E1,2.0308177E0,2.842643E1,6.661592E0,5.9488235E0,2.8710551E0,2.245656E0,2.0459196E1,1.6778172E1,3.665305E1,5.560849E0,7.1826963E0,8.507486E0,1.6774397E1,1.0211847E2,1.0870976E1,1.7852444E1,2.3245367E1,2.7175743E1],"tree_param":{"num_deleted":"0","num_feature":"22","num_nodes":"53","size_leaf_vector":"0"}},{"base_weights":[7.3504467E-3,1.063009E-1,-3.988372E-2,3.456701E-1,2.5251923E-2,-6.902486E-3,-1.5842305E-1,7.610611E-1,2.0387271E-1,-6.0640056E-2,1.5145431E-1,-5.257107E-2,3.85419E-1,-4.137978E-1,-1.0054721E-1,2.2010379E-2,8.925988E-1,7.917958E-2,5.994943E-1,2.1500336E-1,-1.1820663E-1,4.171163E-1,-5.667818E-3,-5.7211345E-1,-4.1129515E-2,6.609005E-1,-9.147247E-2,-2.1088217E-1,-7.981784E-1,3.1077045E-1,-1.4819327E-1,9.892108E-1,2.0144112E-1,2.671279E-1,-1.4270058E-1,-8.163845E-2,8.186205E-1,-5.6899667E-2,4.421894E-1,-9.200109E-1,-7.6350525E-2,1.0611622E0,9.966577E-2,3.1690404E-2,-4.501226E-1,-8.3629495E-1,3.9155528E-2,2.7327973E-2,-1.24140866E-1,7.9989153E-1,-3.921882E-1,6.487257E-2,-1.0078893E0,-5.024262E-1,7.4353206E-1,-1.1746965E-1,-1.0089474E0,-7.3372886E-2,1.5413367E0,-9.143842E-1,-1.1370398E-1],"categories":[],"categories_nodes":[],"categories_segments":[],"categories_sizes":[],"default_left":[1,1,1,1,1,1,1,1,1,1,1,1,1,1,1,0,1,1,1,1,1,1,1,1,1,1,1,1,1,1,1,0,0,0,0,0,0,0,0,0,0,0,0,0,0,0,0,0,0,0,0,0,0,0,0,0,0,0,0,0,0],"id":15,"left_children":[1,3,5,7,9,11,13,15,17,19,21,23,25,27,29,-1,31,33,35,37,39,41,43,45,47,49,51,53,55,57,59,-1,-1,-1,-1,-1,-1,-1,-1,-1,-1,-1,-1,-1,-1,-1,-1,-1,-1,-1,-1,-1,-1,-1,-1,-1,-1,-1,-1,-1,-1],"loss_changes":[4.7921624E0,6.418168E0,2.7126813E0,4.775812E0,2.7034838E0,9.768593E0,2.190855E0,2.0158691E0,3.0987368E0,2.3835783E0,4.215911E0,2.8787408E0,7.5293045E0,1.9833055E0,2.4851747E0,0E0,9.8595905E-1,2.1084192E0,2.3253365E0,1.6330769E0,4.077255E0,7.56693E0,1.0838331E0,1.7191474E0,2.7242663E0,5.6059875E0,3.173726E0,5.775573E0,1.1974282E0,6.3733997E0,2.8613915E0,0E0,0E0,0E0,0E0,0E0,0E0,0E0,0E0,0E0,0E0,0E0,0E0,0E0,0E0,0E0,0E0,0E0,0E0,0E0,0E0,0E0,0E0,0E0,0E0,0E0,0E0,0E0,0E0,0E0,0E0],"parents":[2147483647,0,0,1,1,2,2,3,3,4,4,5,5,6,6,7,7,8,8,9,9,10,10,11,11,12,12,13,13,14,14,16,16,17,17,18,18,19,19,20,20,21,21,22,22,23,23,24,24,25,25,26,26,27,27,28,28,29,29,30,30],"right_children":[2,4,6,8,10,12,14,16,18,20,22,24,26,28,30,-1,32,34,36,38,40,42,44,46,48,50,52,54,56,58,60,-1,-1,-1,-1,-1,-1,-1,-1,-1,-1,-1,-1,-1,-1,-1,-1,-1,-1,-1,-1,-1,-1,-1,-1,-1,-1,-1,-1,-1,-1],"split_conditions":[6E1,5E-1,1.0985E3,5E-1,8.055E2,8.98E2,7.025E2,4.75E1,5.685E2,4.5E0,5E-1,5.585E2,1.0505E3,6.8E2,7.365E2,4.402076E-3,4.85E1,5E-1,5E-1,5E-1,6.5E0,1.0865E3,4.75E1,5.23E2,2.675E2,5E-1,2.945E3,6.485E2,1.3315E3,7.255E2,7.505E2,1.9784217E-1,4.0288225E-2,5.342558E-2,-2.8540118E-2,-1.632769E-2,1.6372411E-1,-1.1379934E-2,8.843788E-2,-1.8400219E-1,-1.5270106E-2,2.1223246E-1,1.9933155E-2,6.338081E-3,-9.002452E-2,-1.67259E-1,7.831106E-3,5.4655946E-3,-2.4828173E-2,1.5997832E-1,-7.843764E-2,1.2974515E-2,-2.0157786E-1,-1.0048524E-1,1.4870642E-1,-2.349393E-2,-2.0178948E-1,-1.4674577E-2,3.0826733E-1,-1.8287684E-1,-2.2740796E-2],"split_indices":[5,12,3,20,3,3,5,3,3,1,4,5,5,5,5,0,1,4,16,0,1,3,1,3,3,18,5,5,3,5,5,0,0,0,0,0,0,0,0,0,0,0,0,0,0,0,0,0,0,0,0,0,0,0,0,0,0,0,0,0,0],"split_type":[0,0,0,0,0,0,0,0,0,0,0,0,0,0,0,0,0,0,0,0,0,0,0,0,0,0,0,0,0,0,0,0,0,0,0,0,0,0,0,0,0,0,0,0,0,0,0,0,0,0,0,0,0,0,0,0,0,0,0,0,0],"sum_hessian":[1.02340826E3,3.3027258E2,6.931357E2,8.271576E1,2.4755682E2,5.430899E2,1.5004582E2,1.9938707E1,6.277705E1,1.4761272E2,9.9944115E1,4.872384E2,5.5851482E1,2.6586086E1,1.2345973E2,3.1889238E0,1.6749783E1,4.8645092E1,1.4131958E1,2.5029625E1,1.2258309E2,3.652795E1,6.3416164E1,9.443023E0,4.7779538E2,3.5156883E1,2.06946E1,1.8413942E1,8.172145E0,1.2243334E1,1.112164E2,1.4317241E1,2.4325426E0,2.6225931E1,2.2419163E1,3.5924885E0,1.053947E1,1.17347145E1,1.3294911E1,5.0407667E0,1.1754232E2,1.1286683E1,2.5241268E1,5.935577E1,4.0603943E0,6.3363957E0,3.1066267E0,2.6221976E2,2.155756E2,3.127015E1,3.886733E0,1.8472342E1,2.2222579E0,1.4467994E1,3.9459481E0,2.3003078E0,5.8718367E0,1.0047272E1,2.1960616E0,3.6917107E0,1.0752469E2],"tree_param":{"num_deleted":"0","num_feature":"22","num_nodes":"61","size_leaf_vector":"0"}},{"base_weights":[6.2297503E-3,5.6225706E-2,-6.809331E-2,4.2277668E-2,1.6210886E0,2.9553356E-2,-1.9499162E-1,7.5168335E-3,3.4991252E-1,8.274294E-3,9.9361396E-1,-7.166003E-1,-1.4799595E-1,9.861432E-2,-1.0614919E-1,1.302272E-1,1.7595291E0,1.2813307E-1,-1.2029159E-1,-1.2997441E-1,-1.013513E0,1.593487E-1,-2.1913856E-1,4.4748753E-1,2.106119E-2,-4.2374626E-1,5.870691E-2,9.9032813E-1,-1.1193896E-1,2.5285556E0,-3.19946E-1,3.1158575E-1,-3.802093E-2,-1.575672E-1,7.0304245E-1,-7.151512E-1,4.7144312E-1,1.2590054E0,-1.3252208E-2,-6.2714714E-1,-1.5849368E-1],"categories":[],"categories_nodes":[],"categories_segments":[],"categories_sizes":[],"default_left":[1,1,1,1,0,1,1,1,1,1,0,1,1,1,1,1,1,1,1,1,0,1,1,0,0,0,0,0,0,0,0,0,0,0,0,0,0,0,0,0,0],"id":16,"left_children":[1,3,5,7,-1,9,11,13,15,17,-1,19,21,23,25,27,29,31,33,35,-1,37,39,-1,-1,-1,-1,-1,-1,-1,-1,-1,-1,-1,-1,-1,-1,-1,-1,-1,-1],"loss_changes":[3.77419E0,1.3183785E1,5.0676937E0,6.443734E0,0E0,4.745599E0,4.2518873E0,5.629377E0,1.8715977E1,3.5247684E0,0E0,2.382206E0,3.628372E0,8.154647E0,1.2690187E1,1.1360253E1,1.3872547E1,3.6191125E0,3.4987612E0,2.4478498E0,0E0,5.9897857E0,3.2131505E0,0E0,0E0,0E0,0E0,0E0,0E0,0E0,0E0,0E0,0E0,0E0,0E0,0E0,0E0,0E0,0E0,0E0,0E0],"parents":[2147483647,0,0,1,1,2,2,3,3,5,5,6,6,7,7,8,8,9,9,11,11,12,12,13,13,14,14,15,15,16,16,17,17,18,18,19,19,21,21,22,22],"right_children":[2,4,6,8,-1,10,12,14,16,18,-1,20,22,24,26,28,30,32,34,36,-1,38,40,-1,-1,-1,-1,-1,-1,-1,-1,-1,-1,-1,-1,-1,-1,-1,-1,-1,-1],"split_conditions":[9.405E2,9.225E2,3.025E2,5E-1,3.2421774E-1,2.935E2,3.405E2,3.54E2,8.095E2,5E-1,1.987228E-1,3.135E2,1.95E1,5E-1,5.705E2,5E-1,8.725E2,3.691E3,6.1E1,4.0585E3,-2.027026E-1,4.245E2,4.495E2,8.949751E-2,4.212238E-3,-8.474925E-2,1.1741382E-2,1.9806562E-1,-2.2387793E-2,5.0571114E-1,-6.39892E-2,6.231715E-2,-7.6041864E-3,-3.151344E-2,1.4060849E-1,-1.4303024E-1,9.4288625E-2,2.518011E-1,-2.6504416E-3,-1.2542944E-1,-3.1698737E-2],"split_indices":[5,5,3,10,0,3,3,5,5,4,0,3,1,12,3,20,5,5,1,5,0,3,3,0,0,0,0,0,0,0,0,0,0,0,0,0,0,0,0,0,0],"split_type":[0,0,0,0,0,0,0,0,0,0,0,0,0,0,0,0,0,0,0,0,0,0,0,0,0,0,0,0,0,0,0,0,0,0,0,0,0,0,0,0,0],"sum_hessian":[1.01366943E3,6.061592E2,4.0751028E2,6.0182196E2,4.337182E0,2.30732E2,1.7677827E2,5.41644E2,6.0177982E1,2.26736E2,3.9960082E0,1.3433257E1,1.6334502E2,3.0074484E2,2.4089914E2,5.3009037E1,7.1689453E0,1.173432E2,1.09392784E2,4.997395E0,8.435863E0,3.047021E1,1.3287482E2,5.3828217E1,2.4691663E2,8.177955E1,1.591196E2,1.0967245E1,4.2041794E1,5.0758486E0,2.093097E0,5.5352524E1,6.199068E1,1.0542825E2,3.9645336E0,2.437048E0,2.560347E0,3.279824E0,2.7190384E1,1.5985531E1,1.1688928E2],"tree_param":{"num_deleted":"0","num_feature":"22","num_nodes":"41","size_leaf_vector":"0"}},{"base_weights":[5.6155515E-3,8.649776E-2,-3.2179758E-2,1.3343085E-1,-2.901559E-1,-7.031002E-2,9.536256E-2,2.2769183E-1,-9.7296745E-2,-7.14457E-2,-6.3981134E-1,-2.01201E-2,-2.0556852E-1,3.2554466E-1,-4.3613203E-2,3.4261653E-1,1.2933977E-1,1.0911218E0,-1.571183E-1,2.870167E-1,-4.4620228E-1,-2.668765E-1,-9.0729743E-1,8.2980746E-1,-3.2361645E-2,-1.11463934E-1,-5.4034483E-1,-3.376843E-1,4.949668E-1,7.946999E-2,-2.5898442E-1,7.624798E-1,1.4833893E-1,1.7718457E-1,-7.7759856E-1,-2.0948923E-1,5.903614E-1,-9.337759E-2,1.1368123E0,-1.0463519E-1,-6.7274874E-1,-7.5813943E-1,4.7710454E-1,-3.8792968E-1,-1.1530935E0,2.8602353E-1,1.0794448E0,-1.2208675E-1,5.3463712E-2,-5.6726888E-2,-5.292397E-1,-6.3526624E-1,1.758488E-1,-2.7469862E-2,-1.0984881E0,7.7315605E-1,2.767243E-1,-5.5367094E-3,1.5229714E0,1.15721956E-1,-6.779962E-1],"categories":[],"categories_nodes":[],"categories_segments":[],"categories_sizes":[],"default_left":[1,1,1,1,1,1,1,1,1,1,1,1,1,1,1,1,1,0,1,1,1,1,1,1,1,1,1,1,1,1,1,0,0,0,0,0,0,0,0,0,0,0,0,0,0,0,0,0,0,0,0,0,0,0,0,0,0,0,0,0,0],"id":17,"left_children":[1,3,5,7,9,11,13,15,17,19,21,23,25,27,29,31,33,-1,35,37,39,41,43,45,47,49,51,53,55,57,59,-1,-1,-1,-1,-1,-1,-1,-1,-1,-1,-1,-1,-1,-1,-1,-1,-1,-1,-1,-1,-1,-1,-1,-1,-1,-1,-1,-1,-1,-1],"loss_changes":[3.0801756E0,5.7108936E0,3.3468213E0,6.2423096E0,2.697161E0,3.5891752E0,5.084476E0,2.2541504E0,6.1186466E0,3.2434504E0,1.122127E0,4.0551243E0,4.4494295E0,6.885154E0,2.6637514E0,7.4865494E0,4.9621887E0,0E0,3.2756855E0,4.134494E0,8.3722496E-1,2.9672456E0,5.161557E-1,4.4259167E-1,2.9530737E0,2.5539646E0,2.2292843E0,2.981224E0,2.70193E0,7.8880067E0,5.8084984E0,0E0,0E0,0E0,0E0,0E0,0E0,0E0,0E0,0E0,0E0,0E0,0E0,0E0,0E0,0E0,0E0,0E0,0E0,0E0,0E0,0E0,0E0,0E0,0E0,0E0,0E0,0E0,0E0,0E0,0E0],"parents":[2147483647,0,0,1,1,2,2,3,3,4,4,5,5,6,6,7,7,8,8,9,9,10,10,11,11,12,12,13,13,14,14,15,15,16,16,18,18,19,19,20,20,21,21,22,22,23,23,24,24,25,25,26,26,27,27,28,28,29,29,30,30],"right_children":[2,4,6,8,10,12,14,16,18,20,22,24,26,28,30,32,34,-1,36,38,40,42,44,46,48,50,52,54,56,58,60,-1,-1,-1,-1,-1,-1,-1,-1,-1,-1,-1,-1,-1,-1,-1,-1,-1,-1,-1,-1,-1,-1,-1,-1,-1,-1,-1,-1,-1,-1],"split_conditions":[5E-1,4.75E1,3.85E1,5E-1,1.8255E3,2.85E1,4.45E1,5E-1,3.095E2,6.295E2,1.415E2,1.15E1,5E-1,1.16E2,1.4535E3,1.8205E3,1.723E3,2.1822436E-1,4.25E1,4.325E2,5E-1,8.9E1,5.7955E3,1.75E1,5.405E2,1.37E3,1.2565E3,5E-1,5E-1,1.3175E3,2.07E2,1.5249597E-1,2.9667785E-2,3.5436913E-2,-1.5551971E-1,-4.1897845E-2,1.18072286E-1,-1.867552E-2,2.2736247E-1,-2.0927038E-2,-1.3454975E-1,-1.5162788E-1,9.542091E-2,-7.7585936E-2,-2.306187E-1,5.7204705E-2,2.1588896E-1,-2.441735E-2,1.0692743E-2,-1.1345378E-2,-1.0584795E-1,-1.2705325E-1,3.516976E-2,-5.4939725E-3,-2.1969762E-1,1.5463121E-1,5.534486E-2,-1.107342E-3,3.0459428E-1,2.3144392E-2,-1.3559924E-1],"split_indices":[20,1,1,11,5,1,1,12,5,3,3,3,16,3,5,5,5,0,1,3,4,3,5,1,3,3,3,14,14,5,3,0,0,0,0,0,0,0,0,0,0,0,0,0,0,0,0,0,0,0,0,0,0,0,0,0,0,0,0,0,0],"split_type":[0,0,0,0,0,0,0,0,0,0,0,0,0,0,0,0,0,0,0,0,0,0,0,0,0,0,0,0,0,0,0,0,0,0,0,0,0,0,0,0,0,0,0,0,0,0,0,0,0,0,0,0,0,0,0,0,0,0,0,0,0],"sum_hessian":[1.0056811E3,3.1986957E2,6.858115E2,2.8500247E2,3.4867107E1,5.283145E2,1.5749702E2,2.0234856E2,8.265391E1,2.2190952E1,1.2676155E1,3.8616888E2,1.4214563E2,5.8787045E1,9.8709984E1,9.216726E1,1.10181305E2,3.134962E0,7.951894E1,1.1461713E1,1.0729239E1,6.128872E0,6.5472827E0,4.53477E0,3.8163412E2,1.11996666E2,3.0148968E1,1.1759504E1,4.7027542E1,6.3214394E1,3.549559E1,2.8231031E1,6.3936226E1,1.0542436E2,4.7569423E0,7.4984985E1,4.533959E0,8.532448E0,2.9292645E0,4.861446E0,5.867794E0,3.6799257E0,2.4489465E0,2.9314265E0,3.6158562E0,2.1019208E0,2.432849E0,1.8637161E2,1.952625E2,1.0002691E2,1.1969756E1,2.6720531E1,3.428436E0,9.089434E0,2.670071E0,1.9556555E1,2.7470985E1,6.063954E1,2.5748522E0,1.9120592E1,1.6375E1],"tree_param":{"num_deleted":"0","num_feature":"22","num_nodes":"61","size_leaf_vector":"0"}},{"base_weights":[4.384132E-3,-1.8278887E-2,1.0526734E-1,8.132439E-3,-1.2462238E-1,2.475603E-1,-7.891091E-2,-5.280661E-2,2.746414E-1,-5.363289E-1,-6.912286E-2,1.7303753E-1,9.993895E-1,6.7932345E-2,-7.1576643E-1,-7.57311E-2,2.0324636E-1,4.1023815E-1,-1.2628202E-1,3.0516015E-2,-8.38313E-1,-1.12290345E-1,3.8819537E-1,5.20448E-1,7.0428304E-2,1.2832212E0,9.21297E-2,1.7186275E-1,-5.5402577E-1,-9.126955E-1,3.238983E-1,-6.4884916E-2,-6.2205845E-1,6.2681067E-1,-4.9635214E-3,7.165114E-1,1.6156256E-1,-2.8754838E-3,-1.0368073E0,4.1810775E-1,-3.2911772E-1,-1.7885925E-1,-1.0042095E0,-1.747249E-1,3.5734946E-1,9.020779E-1,-2.3356913E-1,-3.7167725E-1,7.6015407E-1,-3.4142584E-1,1.9858961E-1,6.9269575E-2,7.37735E-1,-2.9585242E-1,-8.4687763E-1,-1.0243503E0,-4.4664082E-1],"categories":[],"categories_nodes":[],"categories_segments":[],"categories_sizes":[],"default_left":[1,1,1,1,1,1,1,1,1,1,1,1,1,1,1,1,1,1,1,1,1,1,1,1,1,0,0,1,1,1,0,0,0,0,0,0,0,0,0,0,0,0,0,0,0,0,0,0,0,0,0,0,0,0,0,0,0],"id":18,"left_children":[1,3,5,7,9,11,13,15,17,19,21,23,25,27,29,31,33,35,37,39,41,43,45,47,49,-1,-1,51,53,55,-1,-1,-1,-1,-1,-1,-1,-1,-1,-1,-1,-1,-1,-1,-1,-1,-1,-1,-1,-1,-1,-1,-1,-1,-1,-1,-1],"loss_changes":[2.2902763E0,2.2989035E0,4.8350863E0,1.0673535E1,3.683489E0,5.648602E0,7.6091223E0,3.1558328E0,6.700671E0,3.311267E0,2.8988578E0,3.3763235E0,2.2407913E0,4.4009476E0,3.4148078E0,2.873679E0,3.9042E0,6.8628883E0,3.5561388E0,1.2020576E0,1.1942577E0,3.9603279E0,4.268284E0,4.91742E0,4.030207E0,0E0,0E0,3.3065863E0,4.8841643E-1,2.2264194E-1,0E0,0E0,0E0,0E0,0E0,0E0,0E0,0E0,0E0,0E0,0E0,0E0,0E0,0E0,0E0,0E0,0E0,0E0,0E0,0E0,0E0,0E0,0E0,0E0,0E0,0E0,0E0],"parents":[2147483647,0,0,1,1,2,2,3,3,4,4,5,5,6,6,7,7,8,8,9,9,10,10,11,11,12,12,13,13,14,14,15,15,16,16,17,17,18,18,19,19,20,20,21,21,22,22,23,23,24,24,27,27,28,28,29,29],"right_children":[2,4,6,8,10,12,14,16,18,20,22,24,26,28,30,32,34,36,38,40,42,44,46,48,50,-1,-1,52,54,56,-1,-1,-1,-1,-1,-1,-1,-1,-1,-1,-1,-1,-1,-1,-1,-1,-1,-1,-1,-1,-1,-1,-1,-1,-1,-1,-1],"split_conditions":[5E-1,1.1645E3,1.772E3,8.225E2,1.2255E3,5E-1,3.02E2,5E-1,1.0455E3,5E-1,2.1795E3,2.455E2,3.35E1,4.75E1,1.4105E3,7.995E2,3.6875E3,5E-1,2.945E3,5E-1,1.1775E3,5E-1,2.8475E3,5.15E1,5.065E2,2.5664425E-1,1.842594E-2,2.385E2,1.595E2,7.54E2,6.477966E-2,-1.2976984E-2,-1.24411695E-1,1.2536214E-1,-9.927043E-4,1.4330229E-1,3.2312512E-2,-5.7509675E-4,-2.0736146E-1,8.3621554E-2,-6.582355E-2,-3.577185E-2,-2.008419E-1,-3.494498E-2,7.1469896E-2,1.8041559E-1,-4.6713825E-2,-7.433545E-2,1.5203081E-1,-6.828517E-2,3.9717924E-2,1.3853915E-2,1.4754699E-1,-5.9170485E-2,-1.6937552E-1,-2.0487006E-1,-8.932816E-2],"split_indices":[18,3,5,3,3,10,3,8,5,11,5,3,1,1,3,3,5,4,5,4,3,16,5,3,3,0,0,3,3,3,0,0,0,0,0,0,0,0,0,0,0,0,0,0,0,0,0,0,0,0,0,0,0,0,0,0,0],"split_type":[0,0,0,0,0,0,0,0,0,0,0,0,0,0,0,0,0,0,0,0,0,0,0,0,0,0,0,0,0,0,0,0,0,0,0,0,0,0,0,0,0,0,0,0,0,0,0,0,0,0,0,0,0,0,0,0,0],"sum_hessian":[9.998896E2,8.171409E2,1.827487E2,6.55312E2,1.6182887E2,1.0290327E2,7.9845436E1,5.3400916E2,1.2130289E2,1.8194534E1,1.4363434E2,9.474237E1,8.160893E0,6.561057E1,1.4234857E1,4.9077423E2,4.323491E1,9.062819E1,3.0674698E1,6.636436E0,1.1558099E1,1.3193509E2,1.1699247E1,2.0673767E1,7.40686E1,5.900545E0,2.2603486E0,5.6836723E1,8.773851E0,1.2070615E1,2.1642418E0,4.823176E2,8.456638E0,1.358608E1,2.964883E1,3.9767956E1,5.0860237E1,2.7896896E1,2.7778013E0,3.1158097E0,3.5206265E0,2.7409027E0,8.817196E0,1.17007866E2,1.4927226E1,6.158483E0,5.540764E0,4.261815E0,1.6411951E1,1.7183702E1,5.6884903E1,4.906382E1,7.772905E0,5.731395E0,3.0424569E0,8.771316E0,3.2993E0],"tree_param":{"num_deleted":"0","num_feature":"22","num_nodes":"57","size_leaf_vector":"0"}},{"base_weights":[3.3727111E-3,-9.157883E-3,1.8237175E-1,-1.1792878E-2,7.977851E-1,3.6272818E-1,-3.5734084E-2,3.4192998E-3,-1.6476235E-1,9.495551E-1,9.692044E-2,-2.3860234E-1,7.161641E-1,-4.0968757E-2,1.0066996E-1,1.0983833E0,-2.1303645E-1,1.2330772E0,1.8361446E-1,-2.8455493E-1,2.9462186E-1,-4.3278295E-1,6.4377464E-2,1.0561993E0,2.6491466E-1,2.3452109E-2,-1.1051213E-1,2.4765398E-1,-3.46911E-2,-7.082109E-1,-1.4631242E-1,1.4067897E-1,-8.3965194E-1,1.0260476E0,2.8764231E-2,6.700293E-2,-7.7646416E-1,-4.7970992E-1,5.1766634E-1],"categories":[],"categories_nodes":[],"categories_segments":[],"categories_sizes":[],"default_left":[1,1,1,1,0,1,1,1,1,1,1,1,1,1,1,0,1,0,0,1,1,1,1,0,0,0,0,0,0,0,0,0,0,0,0,0,0,0,0],"id":19,"left_children":[1,3,5,7,-1,9,11,13,15,17,19,21,23,25,27,-1,29,-1,-1,31,33,35,37,-1,-1,-1,-1,-1,-1,-1,-1,-1,-1,-1,-1,-1,-1,-1,-1],"loss_changes":[2.2315273E0,1.9870007E0,2.573365E0,2.1600769E0,0E0,5.479302E0,4.8036737E0,3.652071E0,5.353706E0,2.1669683E0,2.0218062E0,1.479177E0,7.4875355E-1,2.6052332E0,5.2834625E0,0E0,2.5960135E0,0E0,0E0,2.3086524E0,3.3571577E0,2.6565232E0,2.8392901E0,0E0,0E0,0E0,0E0,0E0,0E0,0E0,0E0,0E0,0E0,0E0,0E0,0E0,0E0,0E0,0E0],"parents":[2147483647,0,0,1,1,2,2,3,3,5,5,6,6,7,7,8,8,9,9,10,10,11,11,12,12,13,13,14,14,16,16,19,19,20,20,21,21,22,22],"right_children":[2,4,6,8,-1,10,12,14,16,18,20,22,24,26,28,-1,30,-1,-1,32,34,36,38,-1,-1,-1,-1,-1,-1,-1,-1,-1,-1,-1,-1,-1,-1,-1,-1],"split_conditions":[5E-1,1.874E3,5E-1,1.4365E3,1.5955703E-1,2.6925E3,2.485E2,7.595E2,3.5E0,2.37E2,5.0035E3,3.85E1,5E-1,2.675E2,5E-1,2.1967666E-1,1.65E1,2.4661544E-1,3.6722895E-2,3.846E3,5.8785E3,1.215E2,1.27E2,2.1123986E-1,5.2982934E-2,4.6904217E-3,-2.2102427E-2,4.9530797E-2,-6.93822E-3,-1.4164218E-1,-2.9262483E-2,2.8135795E-2,-1.679304E-1,2.0520952E-1,5.752846E-3,1.3400586E-2,-1.5529284E-1,-9.594198E-2,1.0353327E-1],"split_indices":[7,3,4,3,0,5,3,3,1,3,5,1,20,3,4,0,1,0,0,5,5,3,3,0,0,0,0,0,0,0,0,0,0,0,0,0,0,0,0],"split_type":[0,0,0,0,0,0,0,0,0,0,0,0,0,0,0,0,0,0,0,0,0,0,0,0,0,0,0,0,0,0,0,0,0,0,0,0,0,0,0],"sum_hessian":[9.931564E2,9.290671E2,6.4089294E1,9.270253E2,2.041726E0,3.4717533E1,2.937176E1,8.440643E2,8.296104E1,1.0021222E1,2.469631E1,2.3668478E1,5.7032814E0,5.799409E2,2.6412335E2,2.2531E0,8.070794E1,6.8687763E0,3.1524456E0,8.280101E0,1.6416208E1,1.416297E1,9.505508E0,2.48792E0,3.2153616E0,3.0140237E2,2.7853854E2,1.2622754E2,1.3789583E2,8.442223E0,7.226572E1,5.11121E0,3.1688907E0,3.6140022E0,1.2802207E1,6.098904E0,8.064066E0,4.2935853E0,5.2119236E0],"tree_param":{"num_deleted":"0","num_feature":"22","num_nodes":"39","size_leaf_vector":"0"}},{"base_weights":[3.4745971E-3,-2.1684593E-2,7.946376E-2,3.076346E-2,-8.1988156E-2,2.9957378E-1,2.261082E-2,-1.281788E-2,2.035885E-1,-3.005656E-1,-2.1684604E-2,1.6669743E-1,6.1038136E-1,1.1867964E-2,7.070645E-1,3.6156531E-3,-9.462457E-1,4.97703E-1,1.0770757E-2,7.156765E-1,-3.6720166E-1,-2.0486854E-1,2.9480886E-2,2.3792337E-1,-4.4113898E-1,4.060979E-1,9.627795E-1,-1.4280146E-1,4.6876486E-2,-1.143246E-1,8.2364395E-2,7.082102E-1,-1.3261965E-1,-7.415085E-2,1.2206736E0,-7.4822974E-1,-2.5720093E-1,-1.0568866E-1,-8.723325E-1,7.103835E-1,-1.3876237E-2,3.8505167E-1,-5.149794E-2,-1.4977781E-1,8.675918E-1,1.3429378E-1,-5.823716E-1,3.2841226E-1,-1.5994512E-2],"categories":[],"categories_nodes":[],"categories_segments":[],"categories_sizes":[],"default_left":[1,1,1,1,1,1,1,1,1,1,1,1,1,1,0,1,0,1,1,0,1,1,1,1,0,1,0,1,1,0,0,0,0,0,0,0,0,0,0,0,0,0,0,0,0,0,0,0,0],"id":20,"left_children":[1,3,5,7,9,11,13,15,17,19,21,23,25,27,-1,29,-1,31,33,-1,35,37,39,41,-1,43,-1,45,47,-1,-1,-1,-1,-1,-1,-1,-1,-1,-1,-1,-1,-1,-1,-1,-1,-1,-1,-1,-1],"loss_changes":[1.8957376E0,2.3589735E0,3.079563E0,3.009415E0,4.5652347E0,1.9857202E0,1.4407896E0,4.9082747E0,4.557233E0,5.3363767E0,2.5640588E0,1.6974517E0,6.7170763E-1,1.0628883E0,0E0,2.9370399E0,0E0,4.318227E0,5.1885743E0,0E0,2.7822409E0,3.8607407E0,6.3337455E0,1.4495203E0,0E0,2.970852E0,0E0,4.493413E0,2.8339596E0,0E0,0E0,0E0,0E0,0E0,0E0,0E0,0E0,0E0,0E0,0E0,0E0,0E0,0E0,0E0,0E0,0E0,0E0,0E0,0E0],"parents":[2147483647,0,0,1,1,2,2,3,3,4,4,5,5,6,6,7,7,8,8,9,9,10,10,11,11,12,12,13,13,15,15,17,17,18,18,20,20,21,21,22,22,23,23,25,25,27,27,28,28],"right_children":[2,4,6,8,10,12,14,16,18,20,22,24,26,28,-1,30,-1,32,34,-1,36,38,40,42,-1,44,-1,46,48,-1,-1,-1,-1,-1,-1,-1,-1,-1,-1,-1,-1,-1,-1,-1,-1,-1,-1,-1,-1],"split_conditions":[5E-1,2.85E1,5E-1,2.1655E3,3.25E1,3.75E1,5E-1,2.107E3,3.2795E3,2.85E1,1.175E2,3.45E1,4.095E2,1.25E1,1.414129E-1,4.93E2,-1.8924914E-1,5E-1,5E-1,1.431353E-1,7.885E2,1.015E2,1.425E2,5E-1,-8.82278E-2,5E-1,1.925559E-1,4.5E0,1.75E1,-2.2864921E-2,1.647288E-2,1.4164203E-1,-2.6523931E-2,-1.4830171E-2,2.4413471E-1,-1.4964595E-1,-5.1440187E-2,-2.1137733E-2,-1.744665E-1,1.420767E-1,-2.7752474E-3,7.701033E-2,-1.0299589E-2,-2.9955564E-2,1.7351836E-1,2.6858756E-2,-1.1647432E-1,6.5682456E-2,-3.1989024E-3],"split_indices":[0,1,14,5,1,1,21,5,5,3,3,1,3,1,0,3,0,18,2,0,5,3,3,10,0,15,0,1,1,0,0,0,0,0,0,0,0,0,0,0,0,0,0,0,0,0,0,0,0],"split_type":[0,0,0,0,0,0,0,0,0,0,0,0,0,0,0,0,0,0,0,0,0,0,0,0,0,0,0,0,0,0,0,0,0,0,0,0,0,0,0,0,0,0,0,0,0,0,0,0,0],"sum_hessian":[9.896837E2,7.4405115E2,2.4563263E2,3.9820694E2,3.4584418E2,4.9545315E1,1.9608731E2,3.1875278E2,7.945415E1,7.3921745E1,2.7192242E2,3.57835E1,1.3761812E1,1.9405879E2,2.0285149E0,3.1421695E2,4.5358434E0,3.0836498E1,4.8617653E1,3.9494872E0,6.997226E1,5.8712933E1,2.132095E2,3.257496E1,3.2085426E0,1.0074221E1,3.6875916E0,3.5248795E1,1.5881E2,1.2562275E2,1.885942E2,2.3023748E1,7.8127484E0,4.630619E1,2.311462E0,1.4375473E1,5.559679E1,5.2125793E1,6.587138E0,1.1842609E1,2.013669E2,2.1377312E1,1.1197648E1,4.8762097E0,5.198011E0,2.2045982E1,1.320281E1,2.8219543E1,1.3059045E2],"tree_param":{"num_deleted":"0","num_feature":"22","num_nodes":"49","size_leaf_vector":"0"}},{"base_weights":[3.1457322E-3,6.71546E-3,-4.761406E-1,2.2427724E-3,5.943191E-1,3.0093682E-1,-9.304534E-1,5.5771787E-3,-7.180959E-1,-3.379368E-2,1.2730474E0,-6.655143E-3,2.0120619E-1,-9.889365E-4,-5.0441676E-1,1.38644E-1,1.0019951E0],"categories":[],"categories_nodes":[],"categories_segments":[],"categories_sizes":[],"default_left":[1,1,1,1,1,0,0,1,0,0,0,1,1,0,0,0,0],"id":21,"left_children":[1,3,5,7,9,-1,-1,11,-1,-1,-1,13,15,-1,-1,-1,-1],"loss_changes":[1.6903073E0,2.5736887E0,2.85857E0,2.3419697E0,3.1967912E0,0E0,0E0,2.322278E0,0E0,0E0,0E0,2.5767436E0,2.722162E0,0E0,0E0,0E0,0E0],"parents":[2147483647,0,0,1,1,2,2,3,3,4,4,7,7,11,11,12,12],"right_children":[2,4,6,8,10,-1,-1,12,-1,-1,-1,14,16,-1,-1,-1,-1],"split_conditions":[1.83355E4,1.4104E4,1.32E2,1.2456E4,3.85E1,6.0187366E-2,-1.860907E-1,5E-1,-1.4361918E-1,-6.758736E-3,2.546095E-1,9.231E3,9.916E3,-1.977873E-4,-1.0088336E-1,2.77288E-2,2.0039903E-1],"split_indices":[5,5,3,5,1,0,0,7,0,0,0,5,5,0,0,0,0],"split_type":[0,0,0,0,0,0,0,0,0,0,0,0,0,0,0,0,0],"sum_hessian":[9.850823E2,9.787783E2,6.3039594E0,9.723806E2,6.3976946E0,2.4503567E0,3.8536024E0,9.68888E2,3.4926693E0,3.8162494E0,2.5814455E0,9.1277954E2,5.6108444E1,9.034967E2,9.282853E0,5.3130703E1,2.9777396E0],"tree_param":{"num_deleted":"0","num_feature":"22","num_nodes":"17","size_leaf_vector":"0"}},{"base_weights":[2.5404391E-3,3.5781E-2,-4.6325877E-2,2.3716057E-2,1.2416728E0,-1.0630374E-2,-2.7052987E-1,-7.30222E-3,2.930258E-1,1.5942727E0,4.3510538E-1,5.602464E-2,-1.0764836E-1,-4.5376566E-1,1.9671422E-1,7.2657335E-1,-2.0229233E-2,1.1455219E-1,1.3455136E0,1.5755429E0,3.2916855E-2,-1.0137615E0,-6.1163172E-2,-5.053093E-1,3.3012536E-1,1.3161527E0,-2.651601E-1,4.2319176E-1,1.1128492E0,-1.14064E0,-1.1016102E-2,3.9164624E-1,-4.9120918E-1,1.8442731E0,-5.4705046E-2,1.32998815E-2,1.245803E0,4.4623134E-1,-1.8488747E-1,-4.226254E-1,-1.0053711E0,-7.1267444E-1,4.2321256E-1],"categories":[],"categories_nodes":[],"categories_segments":[],"categories_sizes":[],"default_left":[1,1,1,1,1,1,1,1,1,0,0,1,1,1,1,1,1,1,1,0,1,0,1,1,0,0,1,0,0,0,0,0,0,0,0,0,0,0,0,0,0,0,0],"id":22,"left_children":[1,3,5,7,9,11,13,15,17,-1,-1,19,21,23,25,27,29,31,33,-1,35,-1,37,39,-1,-1,41,-1,-1,-1,-1,-1,-1,-1,-1,-1,-1,-1,-1,-1,-1,-1,-1],"loss_changes":[1.6024195E0,8.511973E0,3.1935792E0,4.866253E0,9.546995E-1,2.2408624E0,4.7822556E0,4.977438E0,1.1147011E1,0E0,0E0,7.164051E0,5.8804717E0,1.7699108E0,8.693227E0,5.9338427E-1,5.3039036E0,9.010265E0,6.127733E0,0E0,4.824152E0,0E0,8.573804E0,1.1307201E0,0E0,0E0,4.077469E0,0E0,0E0,0E0,0E0,0E0,0E0,0E0,0E0,0E0,0E0,0E0,0E0,0E0,0E0,0E0,0E0],"parents":[2147483647,0,0,1,1,2,2,3,3,4,4,5,5,6,6,7,7,8,8,11,11,12,12,13,13,14,14,15,15,16,16,17,17,18,18,20,20,22,22,23,23,26,26],"right_children":[2,4,6,8,10,12,14,16,18,-1,-1,20,22,24,26,28,30,32,34,-1,36,-1,38,40,-1,-1,42,-1,-1,-1,-1,-1,-1,-1,-1,-1,-1,-1,-1,-1,-1,-1,-1],"split_conditions":[9.405E2,9.225E2,5E-1,5E-1,1.0385E3,5E-1,2.3545E3,1.95E1,8.095E2,3.1885454E-1,8.7021075E-2,9.93E2,1.0015E3,5.4E1,3.376E3,1.45E1,2.55E1,7.865E2,8.715E2,3.151086E-1,1.3845E3,-2.027523E-1,1.195E3,2.0825E3,6.602507E-2,2.6323053E-1,5E-1,8.463835E-2,2.2256985E-1,-2.28128E-1,-2.2032203E-3,7.832925E-2,-9.8241836E-2,3.688546E-1,-1.0941009E-2,2.6599762E-3,2.491606E-1,8.9246266E-2,-3.6977496E-2,-8.452508E-2,-2.0107423E-1,-1.425349E-1,8.4642515E-2],"split_indices":[5,5,10,10,3,11,5,3,5,0,0,5,5,1,5,3,3,5,5,0,3,0,5,5,0,0,4,0,0,0,0,0,0,0,0,0,0,0,0,0,0,0,0],"split_type":[0,0,0,0,0,0,0,0,0,0,0,0,0,0,0,0,0,0,0,0,0,0,0,0,0,0,0,0,0,0,0,0,0,0,0,0,0,0,0,0,0,0,0],"sum_hessian":[9.8448224E2,5.8607886E2,3.9840338E2,5.812828E2,4.7960663E0,3.445888E2,5.3814552E1,5.221195E2,5.9163254E1,2.6576362E0,2.13843E0,2.045072E2,1.4008162E2,3.8676075E1,1.5138475E1,8.08219E0,5.1403735E2,5.1533413E1,7.6298404E0,2.057059E0,2.0245013E2,5.8203382E0,1.3426128E2,3.6623344E1,2.052732E0,3.8814557E0,1.125702E1,5.700544E0,2.3816454E0,3.1908557E0,5.108465E2,3.56016E1,1.5931811E1,5.3920527E0,2.2377877E0,2.0022275E2,2.2273965E0,2.5809523E1,1.0845176E2,3.301032E1,3.6130233E0,6.800609E0,4.456411E0],"tree_param":{"num_deleted":"0","num_feature":"22","num_nodes":"43","size_leaf_vector":"0"}},{"base_weights":[2.8069725E-3,1.6787713E-2,-1.1984126E-1,-4.497414E-3,1.63435E-1,-7.1449924E-1,-5.1397596E-2,8.8154964E-2,-4.779517E-2,-1.8602023E-1,2.5036827E-1,-3.1394726E-1,-1.0019833E0,2.1297896E-2,-4.0283385E-1,1.2761296E-1,-6.66912E-1,-3.5631035E-2,-4.9394545E-1,8.505217E-1,-3.603359E-1,3.4289184E-1,-1.1521726E-1,-7.2883826E-1,2.1827814E-1,-2.2065873E-1,1.816614E-1,-5.898957E-1,3.4302175E-1,1.5801124E-1,-3.1027165E-1,-2.0977059E-1,-9.769011E-1,1.6766523E-1,-5.9366703E-2,3.2017357E-3,-8.4195155E-1,-6.2279576E-1,1.9363317E-1,7.09807E-1,2.0401342E-1,-1.011467E0,7.072162E-2,-3.455029E-1,5.773037E-1,3.2560122E-1,-3.2615507E-1,-4.9763303E-2,-7.665527E-1],"categories":[],"categories_nodes":[],"categories_segments":[],"categories_sizes":[],"default_left":[1,1,1,1,1,1,1,1,1,1,1,1,0,1,1,1,1,1,1,0,1,1,1,0,0,1,1,1,0,0,0,0,0,0,0,0,0,0,0,0,0,0,0,0,0,0,0,0,0],"id":23,"left_children":[1,3,5,7,9,11,13,15,17,19,21,23,-1,25,27,29,31,33,35,-1,37,39,41,-1,-1,43,45,47,-1,-1,-1,-1,-1,-1,-1,-1,-1,-1,-1,-1,-1,-1,-1,-1,-1,-1,-1,-1,-1],"loss_changes":[1.6870542E0,2.7569916E0,4.0609517E0,3.10148E0,3.4474633E0,8.7314224E-1,2.3427389E0,7.421513E0,2.8415103E0,4.439636E0,3.0862436E0,1.4322978E0,0E0,3.0143526E0,2.394211E0,3.1751366E0,1.5507913E0,2.4898224E0,2.408368E0,0E0,3.0698123E0,3.5308113E0,3.227898E0,0E0,0E0,3.2882802E0,3.5159807E0,1.1953769E0,0E0,0E0,0E0,0E0,0E0,0E0,0E0,0E0,0E0,0E0,0E0,0E0,0E0,0E0,0E0,0E0,0E0,0E0,0E0,0E0,0E0],"parents":[2147483647,0,0,1,1,2,2,3,3,4,4,5,5,6,6,7,7,8,8,9,9,10,10,11,11,13,13,14,14,15,15,16,16,17,17,18,18,20,20,21,21,22,22,25,25,26,26,27,27],"right_children":[2,4,6,8,10,12,14,16,18,20,22,24,-1,26,28,30,32,34,36,-1,38,40,42,-1,-1,44,46,48,-1,-1,-1,-1,-1,-1,-1,-1,-1,-1,-1,-1,-1,-1,-1,-1,-1,-1,-1,-1,-1],"split_conditions":[4.85E1,3.95E1,4.95E1,5E-1,1.175E2,5E-1,5E-1,3.75E1,5E-1,1.15E1,1.13E3,4.945E2,-2.0039666E-1,7.845E2,5E-1,1.4985E3,1.282E3,7.85E1,6.715E2,1.7010434E-1,5E-1,6.64E2,1.189E3,-1.4576766E-1,4.365563E-2,5E-1,5E-1,5.25E1,6.860435E-2,3.160225E-2,-6.2054332E-2,-4.195412E-2,-1.9538023E-1,3.3533048E-2,-1.1873341E-2,6.4034713E-4,-1.6839032E-1,-1.2455916E-1,3.8726635E-2,1.419614E-1,4.0802684E-2,-2.022934E-1,1.4144324E-2,-6.910058E-2,1.15460746E-1,6.512024E-2,-6.523102E-2,-9.952661E-3,-1.5331054E-1],"split_indices":[1,1,1,20,3,4,16,1,17,3,3,3,0,5,0,3,5,3,5,0,18,5,3,0,0,15,18,1,0,0,0,0,0,0,0,0,0,0,0,0,0,0,0,0,0,0,0,0,0],"split_type":[0,0,0,0,0,0,0,0,0,0,0,0,0,0,0,0,0,0,0,0,0,0,0,0,0,0,0,0,0,0,0,0,0,0,0,0,0,0,0,0,0,0,0,0,0,0,0,0,0],"sum_hessian":[9.8169617E2,8.8201764E2,9.967856E1,7.7106995E2,1.1094766E2,9.314275E0,9.036429E1,2.4524243E2,5.258276E2,2.18749E1,8.907276E1,4.765937E0,4.548338E0,7.565438E1,1.4709906E1,2.3385283E2,1.1389601E1,5.129227E2,1.2904799E1,2.5906694E0,1.9284231E1,7.113241E1,1.7940351E1,2.4705937E0,2.2953432E0,3.0005722E1,4.564866E1,1.1927556E1,2.7823493E0,2.1927008E2,1.4582741E1,5.2799516E0,6.109649E0,5.299094E1,4.5993182E2,5.7217464E0,7.183053E0,1.3000569E1,6.2836623E0,1.8402428E1,5.272998E1,2.3196332E0,1.5620717E1,2.6436632E1,3.5690906E0,3.5846767E1,9.80189E0,3.2554982E0,8.672058E0],"tree_param":{"num_deleted":"0","num_feature":"22","num_nodes":"49","size_leaf_vector":"0"}},{"base_weights":[1.2923165E-3,-1.1083123E-3,6.2818307E-1,1.338538E-3,-6.208886E-1,3.9689E-3,-5.296006E-1,-1.3232957E-2,8.090833E-2,-5.6456104E-3,-3.2860973E-1,1.90091E-1,-5.909391E-2],"categories":[],"categories_nodes":[],"categories_segments":[],"categories_sizes":[],"default_left":[1,1,0,1,0,1,0,1,1,0,0,0,0],"id":24,"left_children":[1,3,-1,5,-1,7,-1,9,11,-1,-1,-1,-1],"loss_changes":[1.4745504E0,1.4818718E0,0E0,1.3620309E0,0E0,1.2848154E0,0E0,1.8970944E0,2.7225642E0,0E0,0E0,0E0,0E0],"parents":[2147483647,0,0,1,1,3,3,5,5,7,7,8,8],"right_children":[2,4,-1,6,-1,8,-1,10,12,-1,-1,-1,-1],"split_conditions":[1.867E3,1.8315E3,1.2563662E-1,7.15E1,-1.2417772E-1,5E-1,-1.0592013E-1,5E-1,1.772E3,-1.1291221E-3,-6.572195E-2,3.80182E-2,-1.1818782E-2],"split_indices":[3,3,0,1,0,18,0,17,5,0,0,0,0],"split_type":[0,0,0,0,0,0,0,0,0,0,0,0,0],"sum_hessian":[9.7834937E2,9.756116E2,2.7377958E0,9.72769E2,2.8425858E0,9.689611E2,3.8078723E0,7.925856E2,1.7637558E2,7.749595E2,1.7626102E1,9.889398E1,7.74816E1],"tree_param":{"num_deleted":"0","num_feature":"22","num_nodes":"13","size_leaf_vector":"0"}},{"base_weights":[8.539457E-4,3.902659E-3,-4.2067346E-1,7.8894984E-5,4.959036E-1,2.5328442E-1,-8.4354764E-1,2.784868E-3,-6.147319E-1,-1.5891412E-1,9.3984354E-1,-6.832429E-3,1.5590943E-1,-2.2407079E-3,-4.2397007E-1,3.3079845E-1,-5.2346427E-2],"categories":[],"categories_nodes":[],"categories_segments":[],"categories_sizes":[],"default_left":[1,1,1,1,1,0,0,1,0,0,0,1,1,0,0,0,0],"id":25,"left_children":[1,3,5,7,9,-1,-1,11,-1,-1,-1,13,15,-1,-1,-1,-1],"loss_changes":[1.2589654E0,1.8292174E0,2.2184868E0,1.6085434E0,2.3291512E0,0E0,0E0,1.418638E0,0E0,0E0,0E0,1.735679E0,2.0907078E0,0E0,0E0,0E0,0E0],"parents":[2147483647,0,0,1,1,2,2,3,3,4,4,7,7,11,11,12,12],"right_children":[2,4,6,8,10,-1,-1,12,-1,-1,-1,14,16,-1,-1,-1,-1],"split_conditions":[1.83355E4,1.4104E4,1.32E2,1.2456E4,3.55E1,5.0656885E-2,-1.6870953E-1,5E-1,-1.2294638E-1,-3.1782825E-2,1.8796872E-1,9.231E3,5E-1,-4.4814157E-4,-8.4794015E-2,6.615969E-2,-1.0469286E-2],"split_indices":[5,5,3,5,1,0,0,7,0,0,0,5,4,0,0,0,0],"split_type":[0,0,0,0,0,0,0,0,0,0,0,0,0,0,0,0,0],"sum_hessian":[9.773733E2,9.713388E2,6.034504E0,9.648404E2,6.498447E0,2.481169E0,3.5533352E0,9.616035E2,3.2368448E0,2.8850272E0,3.6134198E0,9.056761E2,5.5927433E1,8.968097E2,8.86643E0,3.0079153E1,2.5848278E1],"tree_param":{"num_deleted":"0","num_feature":"22","num_nodes":"17","size_leaf_vector":"0"}},{"base_weights":[5.162419E-4,-9.560073E-3,1.3163552E-1,6.3900836E-2,-3.5929877E-2,3.0441523E-1,-1.4449872E-1,2.7119042E-2,2.775451E-1,-8.892679E-2,3.0400116E-2,-6.6406645E-2,4.3039227E-1,3.7001625E-1,-4.6828178E-1,-9.371913E-2,1.0978127E-1,8.617923E-1,-1.8638436E-1,-4.6559474E-1,-5.0164253E-2,5.4684126E-1,-6.908098E-3,3.4348625E-1,-6.339439E-1,4.9944872E-1,-4.074633E-1,-2.7092236E-1,5.399059E-1,-1.005658E0,-3.3835772E-2,-4.493189E-2,-5.2641696E-1,6.4137584E-1,2.7883938E-2,1.8081963E-1,1.0937954E0,-1.1298746E0,1.2379049E-1,-7.453869E-1,-7.633478E-2,7.4838124E-2,-1.07561864E-1,1.7778465E-1,9.158231E-1,1.5050691E-2,-6.465559E-1,-5.9168007E-2,6.3791317E-1,-8.1424135E-1,-2.5931266E-1,3.850193E-1,1.111509E0,1.9285137E-2,8.0166066E-1,-1.1785275E0,-4.8024422E-1,2.1660358E-1,-6.501741E-1],"categories":[],"categories_nodes":[],"categories_segments":[],"categories_sizes":[],"default_left":[1,1,1,1,1,1,1,1,1,1,1,1,1,1,1,1,1,1,1,1,1,1,1,1,1,1,0,0,1,1,1,0,0,0,0,0,0,0,0,0,0,0,0,0,0,0,0,0,0,0,0,0,0,0,0,0,0,0,0],"id":26,"left_children":[1,3,5,7,9,11,13,15,17,19,21,23,25,27,29,31,33,35,37,39,41,43,45,47,49,51,-1,-1,53,55,57,-1,-1,-1,-1,-1,-1,-1,-1,-1,-1,-1,-1,-1,-1,-1,-1,-1,-1,-1,-1,-1,-1,-1,-1,-1,-1,-1,-1],"loss_changes":[1.2926216E0,1.7623849E0,3.375145E0,1.8812869E0,2.355258E0,2.0499182E0,4.7630005E0,2.0696325E0,9.70028E0,5.4118857E0,5.744997E0,2.9717374E0,2.0799437E0,1.3658065E0,4.016762E0,1.7556057E0,5.331915E0,2.2913895E0,6.121513E0,3.712957E0,2.4377913E0,2.5726886E0,3.9269354E0,9.295558E-1,1.4792538E-1,1.7019534E0,0E0,0E0,1.2365372E0,1.353774E-1,1.7815037E0,0E0,0E0,0E0,0E0,0E0,0E0,0E0,0E0,0E0,0E0,0E0,0E0,0E0,0E0,0E0,0E0,0E0,0E0,0E0,0E0,0E0,0E0,0E0,0E0,0E0,0E0,0E0,0E0],"parents":[2147483647,0,0,1,1,2,2,3,3,4,4,5,5,6,6,7,7,8,8,9,9,10,10,11,11,12,12,13,13,14,14,15,15,16,16,17,17,18,18,19,19,20,20,21,21,22,22,23,23,24,24,25,25,28,28,29,29,30,30],"right_children":[2,4,6,8,10,12,14,16,18,20,22,24,26,28,30,32,34,36,38,40,42,44,46,48,50,52,-1,-1,54,56,58,-1,-1,-1,-1,-1,-1,-1,-1,-1,-1,-1,-1,-1,-1,-1,-1,-1,-1,-1,-1,-1,-1,-1,-1,-1,-1,-1,-1],"split_conditions":[5E-1,1.95E1,3.75E1,1.85E1,5.79E2,2.65E1,4.3135E3,4.815E2,4.245E2,2.15E1,6.425E2,5E-1,1.56835E4,5.7E1,4.45E1,4.365E2,6.005E2,2.985E2,6.945E2,8.18E2,5E-1,6.035E2,2.899E3,1.815E2,1.72E2,9.699E3,-8.149266E-2,-5.4184474E-2,4.25E1,8.3255E3,9.218E3,-8.986378E-3,-1.05283394E-1,1.2827517E-1,5.5767875E-3,3.6163926E-2,2.1875909E-1,-2.2597492E-1,2.4758099E-2,-1.4907739E-1,-1.5266957E-2,1.4967625E-2,-2.1512372E-2,3.555693E-2,1.8316463E-1,3.0101382E-3,-1.2931119E-1,-1.1833602E-2,1.2758264E-1,-1.6284828E-1,-5.1862534E-2,7.700386E-2,2.223018E-1,3.8570275E-3,1.6033213E-1,-2.357055E-1,-9.604885E-2,4.3320715E-2,-1.3003482E-1],"split_indices":[8,1,1,1,3,1,5,3,3,1,3,4,5,3,1,3,3,5,3,5,20,3,5,3,3,5,0,0,1,5,5,0,0,0,0,0,0,0,0,0,0,0,0,0,0,0,0,0,0,0,0,0,0,0,0,0,0,0,0],"split_type":[0,0,0,0,0,0,0,0,0,0,0,0,0,0,0,0,0,0,0,0,0,0,0,0,0,0,0,0,0,0,0,0,0,0,0,0,0,0,0,0,0,0,0,0,0,0,0,0,0,0,0,0,0,0,0,0,0,0,0],"sum_hessian":[9.764176E2,9.075972E2,6.8820366E1,2.3936151E2,6.682357E2,4.226952E1,2.655084E1,2.0516626E2,3.419525E1,3.7126138E2,2.9697433E2,1.0838509E1,3.1431013E1,1.0199808E1,1.6351032E1,8.328457E1,1.2188169E2,1.4755453E1,1.9439798E1,3.361381E1,3.3764758E2,1.9088146E1,2.778862E2,6.522521E0,4.3159876E0,2.9410852E1,2.0201602E0,2.0125213E0,8.187287E0,6.7218347E0,9.629198E0,7.5837616E1,7.44695E0,1.5358487E1,1.065232E2,4.2017913E0,1.0553662E1,4.155844E0,1.5283955E1,1.9024502E1,1.4589311E1,1.061553E2,2.3149228E2,1.0283943E1,8.804203E0,2.6960718E2,8.27901E0,3.0924156E0,3.4301052E0,2.1215224E0,2.1944654E0,2.615081E1,3.260042E0,3.0983858E0,5.088901E0,4.1224403E0,2.5993943E0,7.308193E0,2.321005E0],"tree_param":{"num_deleted":"0","num_feature":"22","num_nodes":"59","size_leaf_vector":"0"}},{"base_weights":[-8.029004E-5,1.118857E-2,-1.00457475E-1,-6.6223727E-3,1.3414416E-1,-6.392901E-1,-4.08022E-2,2.272821E-2,-8.1832916E-2,-1.3967463E-1,2.0086677E-1,-2.8703487E-1,-8.9790267E-1,-7.345108E-1,-1.239953E-2,-3.7221329E-3,1.7940874E-1,-1.5300195E-1,1.1370115E-1,8.1577456E-1,-2.901244E-1,1.0560112E0,1.5725483E-1,-6.6011363E-1,1.7472382E-1,2.2786896E-1,-1.3015251E-1,-1.7038843E-2,3.5031185E-1,3.1226787E-1,-1.7128454E-1,1.574245E-1,-2.2738458E-1,-9.820353E-3,6.240764E-1,7.971785E-1,-4.5821846E-1,4.2265967E-1,6.379137E-2,-4.2171918E-2,5.123842E-1,-4.129999E-1,-8.342828E-3],"categories":[],"categories_nodes":[],"categories_segments":[],"categories_sizes":[],"default_left":[1,1,1,1,1,1,1,1,1,1,1,1,0,0,1,1,1,1,1,0,1,0,1,0,0,1,1,0,0,0,0,0,0,0,0,0,0,0,0,0,0,0,0],"id":27,"left_children":[1,3,5,7,9,11,13,15,17,19,21,23,-1,-1,25,27,29,31,33,-1,35,-1,37,-1,-1,39,41,-1,-1,-1,-1,-1,-1,-1,-1,-1,-1,-1,-1,-1,-1,-1,-1],"loss_changes":[1.1040576E0,1.922682E0,3.14068E0,1.6960238E0,2.0575101E0,6.3062835E-1,1.7595618E0,2.291694E0,3.0183408E0,3.4500299E0,3.1802838E0,1.0797689E0,0E0,0E0,2.498224E0,2.2404552E0,3.7746859E0,3.69628E0,3.6700644E0,0E0,4.029938E0,0E0,2.1199315E0,0E0,0E0,2.2543626E0,2.03591E0,0E0,0E0,0E0,0E0,0E0,0E0,0E0,0E0,0E0,0E0,0E0,0E0,0E0,0E0,0E0,0E0],"parents":[2147483647,0,0,1,1,2,2,3,3,4,4,5,5,6,6,7,7,8,8,9,9,10,10,11,11,14,14,15,15,16,16,17,17,18,18,20,20,22,22,25,25,26,26],"right_children":[2,4,6,8,10,12,14,16,18,20,22,24,-1,-1,26,28,30,32,34,-1,36,-1,38,-1,-1,40,42,-1,-1,-1,-1,-1,-1,-1,-1,-1,-1,-1,-1,-1,-1,-1,-1],"split_conditions":[4.85E1,3.95E1,4.95E1,2.85E1,1.175E2,5E-1,2.05E1,2.65E1,5E-1,4.05E1,1.38E2,4.945E2,-1.7958054E-1,-1.4690216E-1,2.005E2,5E-1,5E-1,7.55E1,5E-1,1.6315491E-1,7.5E0,2.1120225E-1,6.64E2,-1.3202272E-1,3.4944765E-2,5.75E1,4.52E2,-3.4077687E-3,7.006237E-2,6.2453575E-2,-3.425691E-2,3.14849E-2,-4.5476917E-2,-1.9640706E-3,1.24815285E-1,1.594357E-1,-9.164369E-2,8.453193E-2,1.2758275E-2,-8.434384E-3,1.02476835E-1,-8.259998E-2,-1.6685656E-3],"split_indices":[1,1,1,1,3,4,3,1,12,1,3,3,0,0,3,9,12,3,19,0,3,0,5,0,0,1,3,0,0,0,0,0,0,0,0,0,0,0,0,0,0,0,0],"split_type":[0,0,0,0,0,0,0,0,0,0,0,0,0,0,0,0,0,0,0,0,0,0,0,0,0,0,0,0,0,0,0,0,0,0,0,0,0,0,0,0,0,0,0],"sum_hessian":[9.740667E2,8.765493E2,9.751741E1,7.6646747E2,1.1008182E2,8.751712E0,8.87657E1,5.5181995E2,2.1464752E2,2.1354214E1,8.872761E1,4.5982943E0,4.153417E0,2.5135665E0,8.625214E1,4.7295358E2,7.886639E1,1.5752885E2,5.7118664E1,2.3034759E0,1.9050737E1,3.1790411E0,8.554857E1,2.3057752E0,2.292519E0,2.806069E1,5.8191444E1,4.5672607E2,1.622752E1,5.7276802E1,2.158958E1,3.0234135E1,1.2729472E2,4.6778133E1,1.03405285E1,2.0497355E0,1.7001003E1,2.1362904E1,6.418566E1,1.4833551E1,1.32271385E1,1.6797163E1,4.139428E1],"tree_param":{"num_deleted":"0","num_feature":"22","num_nodes":"43","size_leaf_vector":"0"}},{"base_weights":[9.341759E-5,-1.8229296E-3,5.86861E-1,1.6817795E-2,-6.985173E-2,5.9353015E-3,9.2949504E-1,-9.707559E-2,3.0935228E-1,-1.9300431E-2,1.6917962E-1,1.837377E-1,1.1699508E0,-5.6879167E-2,-4.2203423E-1,7.285228E-1,-1.7828274E-1,2.033138E-2,-1.0381545E-1,4.111237E-1,-3.347189E-2,-8.264248E-2,9.759433E-1,-8.165028E-1,-6.0887545E-2,1.1891512E0,-4.7147498E-2,-6.9380355E-1,2.8013164E-1],"categories":[],"categories_nodes":[],"categories_segments":[],"categories_sizes":[],"default_left":[1,1,0,1,1,1,1,1,1,1,1,0,0,1,1,1,1,0,0,0,0,0,0,0,0,0,0,0,0],"id":28,"left_children":[1,3,-1,5,7,9,11,13,15,17,19,-1,-1,21,23,25,27,-1,-1,-1,-1,-1,-1,-1,-1,-1,-1,-1,-1],"loss_changes":[1.0956724E0,1.2328653E0,0E0,7.574619E0,2.1886113E0,3.1143844E0,1.3964863E0,2.5342374E0,3.0415473E0,2.19597E0,4.9764566E0,0E0,0E0,4.749127E0,2.9994657E0,2.863245E0,1.9403133E0,0E0,0E0,0E0,0E0,0E0,0E0,0E0,0E0,0E0,0E0,0E0,0E0],"parents":[2147483647,0,0,1,1,3,3,4,4,5,5,6,6,7,7,8,8,9,9,10,10,13,13,14,14,15,15,16,16],"right_children":[2,4,-1,6,8,10,12,14,16,18,20,-1,-1,22,24,26,28,-1,-1,-1,-1,-1,-1,-1,-1,-1,-1,-1,-1],"split_conditions":[1.874E3,1.0985E3,1.1737221E-1,1.0805E3,2.374E3,8.225E2,2.05E1,1.448E3,2.797E3,5E-1,5E-1,3.674754E-2,2.3399018E-1,1.3945E3,1.3995E3,1.431E3,4.1035E3,4.0662764E-3,-2.076309E-2,8.222474E-2,-6.694378E-3,-1.6528497E-2,1.9518867E-1,-1.6330056E-1,-1.2177509E-2,2.3783024E-1,-9.4294995E-3,-1.3876072E-1,5.602633E-2],"split_indices":[3,3,0,3,5,3,1,5,5,12,4,0,0,5,3,3,5,0,0,0,0,0,0,0,0,0,0,0,0],"split_type":[0,0,0,0,0,0,0,0,0,0,0,0,0,0,0,0,0,0,0,0,0,0,0,0,0,0,0,0,0],"sum_hessian":[9.724556E2,9.702836E2,2.171994E0,7.621876E2,2.0809596E2,7.542013E2,7.986369E0,1.948512E2,1.3244779E1,6.5398444E2,1.0021686E2,2.3773384E0,5.6090307E0,1.7444757E2,2.0403612E1,6.856741E0,6.388038E0,4.4572778E2,2.0825665E2,4.5211033E1,5.5005825E1,1.7109955E2,3.348021E0,9.149286E0,1.1254326E1,3.96756E0,2.8891807E0,2.76505E0,3.6229882E0],"tree_param":{"num_deleted":"0","num_feature":"22","num_nodes":"29","size_leaf_vector":"0"}},{"base_weights":[5.776361E-4,2.4973768E-1,-4.19367E-3,6.523397E-1,8.925666E-2,-2.3800613E-2,5.64677E-2,4.1968092E-1,-2.4629909E-1,-1.1000218E-1,-2.279178E-3,2.9969262E-2,4.1293204E-1,8.519593E-2,7.024703E-1,-6.663727E-1,1.3249873E-1,-1.7022197E-1,4.5115134E-1,4.5526752E-1,-1.7394252E-2,8.006926E-3,3.9639342E-1,1.6463675E-1,8.462841E-1,-5.888623E-2,-4.2684382E-1,-2.274128E-1,1.5626546E0,1.2628834E-1,1.3921019E0,-6.4332694E-1,-7.2255763E-3,-2.108772E-1,3.876288E-2,8.7892526E-1,2.8256528E-2,5.2574086E-1,-1.8895218E-1],"categories":[],"categories_nodes":[],"categories_segments":[],"categories_sizes":[],"default_left":[1,1,1,0,1,1,1,1,1,1,1,1,1,0,0,0,0,1,1,1,1,1,1,1,0,0,0,0,0,0,0,0,0,0,0,0,0,0,0],"id":29,"left_children":[1,3,5,-1,7,9,11,13,15,17,19,21,23,-1,-1,-1,-1,25,27,29,31,33,35,37,-1,-1,-1,-1,-1,-1,-1,-1,-1,-1,-1,-1,-1,-1,-1],"loss_changes":[1.1565112E0,1.1227849E0,1.1368055E0,0E0,1.6809045E0,1.3395126E0,2.1931112E0,6.5322244E-1,1.3118448E0,4.951651E0,4.0116124E0,1.7545046E0,1.590615E0,0E0,0E0,0E0,0E0,3.7177956E0,1.1106558E1,5.5411987E0,3.5683923E0,1.4022486E0,2.1654515E0,1.5629352E0,0E0,0E0,0E0,0E0,0E0,0E0,0E0,0E0,0E0,0E0,0E0,0E0,0E0,0E0,0E0],"parents":[2147483647,0,0,1,1,2,2,4,4,5,5,6,6,7,7,8,8,9,9,10,10,11,11,12,12,17,17,18,18,19,19,20,20,21,21,22,22,23,23],"right_children":[2,4,6,-1,8,10,12,14,16,18,20,22,24,-1,-1,-1,-1,26,28,30,32,34,36,38,-1,-1,-1,-1,-1,-1,-1,-1,-1,-1,-1,-1,-1,-1,-1],"split_conditions":[5E-1,5E-1,5E-1,1.3046794E-1,7.355E2,7.165E2,5E-1,4.47E2,1.091E3,5E-1,7.365E2,5E-1,3.55E1,1.7039185E-2,1.4049406E-1,-1.3327454E-1,2.6499746E-2,2.75E1,4.955E2,7.31E2,7.495E2,9.5E0,2.25E1,5E-1,1.6925682E-1,-1.1777246E-2,-8.536877E-2,-4.548256E-2,3.1253093E-1,2.5257668E-2,2.784204E-1,-1.2866539E-1,-1.4451153E-3,-4.217544E-2,7.752576E-3,1.7578505E-1,5.651306E-3,1.05148174E-1,-3.7790436E-2],"split_indices":[1,20,0,0,3,5,15,3,3,10,5,11,1,0,0,0,0,1,5,5,5,1,1,4,0,0,0,0,0,0,0,0,0,0,0,0,0,0,0],"split_type":[0,0,0,0,0,0,0,0,0,0,0,0,0,0,0,0,0,0,0,0,0,0,0,0,0,0,0,0,0,0,0,0,0,0,0,0,0,0,0],"sum_hessian":[9.709426E2,1.7279074E1,9.536636E2,4.051098E0,1.3227976E1,7.2117377E2,2.3248982E2,6.538632E0,6.689344E0,1.4325829E2,5.7791547E2,2.1741216E2,1.5077664E1,3.5916617E0,2.94697E0,2.8118842E0,3.8774595E0,1.300037E2,1.3254597E1,1.7549723E1,5.603657E2,2.0608208E2,1.1330074E1,1.0462779E1,4.614885E0,9.152494E1,3.8478752E1,8.724039E0,4.5305576E0,1.3828503E1,3.72122E0,7.9625983E0,5.5240314E2,2.4668032E1,1.8141405E2,4.3027678E0,7.027306E0,4.935505E0,5.5272746E0],"tree_param":{"num_deleted":"0","num_feature":"22","num_nodes":"39","size_leaf_vector":"0"}},{"base_weights":[1.4673711E-3,2.8599108E-2,-3.9328728E-2,1.5206264E-2,4.7201705E-1,-3.8285336E-1,-1.9847859E-2,-9.3401605E-3,2.2730842E-1,-1.8354914E-1,1.4993966E0,-1.7430924E-1,-8.0347574E-1,2.2766253E-1,-3.997042E-2,-8.549309E-2,8.0623135E-2,7.337325E-2,1.1145377E0,-5.0011545E-1,5.424842E-1,6.2186074E-1,1.9399453E0,-4.5550928E-1,3.1892228E-1,-2.3617841E-1,-1.016128E0,-8.922233E-1,4.4298258E-1,-5.3269494E-1,-1.975321E-2,-2.7105289E-2,-5.543695E-1,3.3043736E-1,-2.2202425E-2,-6.933713E-2,1.040474E0,1.5129807E0,-3.4044106E-2,4.7613125E-2,-9.613669E-1,-8.731354E-1,-2.3845498E-1,-3.15641E-1,7.9122615E-1,6.811422E-1,5.2466635E-2,-8.64466E-1,-1.3351649E-1,9.887757E-1,-3.165164E-2],"categories":[],"categories_nodes":[],"categories_segments":[],"categories_sizes":[],"default_left":[1,1,1,1,1,1,1,1,1,1,1,1,1,1,1,1,1,1,1,1,0,0,0,1,1,0,0,0,1,1,1,0,0,0,0,0,0,0,0,0,0,0,0,0,0,0,0,0,0,0,0],"id":30,"left_children":[1,3,5,7,9,11,13,15,17,19,21,23,25,27,29,31,33,35,37,39,-1,-1,-1,41,43,-1,-1,-1,45,47,49,-1,-1,-1,-1,-1,-1,-1,-1,-1,-1,-1,-1,-1,-1,-1,-1,-1,-1,-1,-1],"loss_changes":[1.073153E0,3.4506161E0,2.584064E0,2.9500487E0,1.1750118E1,1.6781969E0,1.8396504E0,3.490246E0,7.944848E0,2.8665483E0,1.401495E0,2.2444072E0,5.554414E-1,7.094821E0,3.3839297E0,7.536665E0,6.007958E0,7.1318746E0,3.995802E0,2.163774E0,0E0,0E0,0E0,7.0289826E-1,2.073062E0,0E0,0E0,0E0,2.193726E0,1.6581814E0,3.9716406E0,0E0,0E0,0E0,0E0,0E0,0E0,0E0,0E0,0E0,0E0,0E0,0E0,0E0,0E0,0E0,0E0,0E0,0E0,0E0,0E0],"parents":[2147483647,0,0,1,1,2,2,3,3,4,4,5,5,6,6,7,7,8,8,9,9,10,10,11,11,12,12,13,13,14,14,15,15,16,16,17,17,18,18,19,19,23,23,24,24,28,28,29,29,30,30],"right_children":[2,4,6,8,10,12,14,16,18,20,22,24,26,28,30,32,34,36,38,40,-1,-1,-1,42,44,-1,-1,-1,46,48,50,-1,-1,-1,-1,-1,-1,-1,-1,-1,-1,-1,-1,-1,-1,-1,-1,-1,-1,-1,-1],"split_conditions":[9.545E2,9.085E2,1.0365E3,5E-1,5E-1,1.0055E3,1.1705E3,7.845E2,8.095E2,5E-1,9.17E2,9.915E2,3.005E2,1.75E1,1.2475E3,8.275E2,1.0255E3,5.455E2,8.715E2,9.255E2,